tree
version=v4
num_class=1
num_tree_per_iteration=1
label_index=0
max_feature_idx=405
objective=regression
feature_names=Column_0 Column_1 Column_2 Column_3 Column_4 Column_5 Column_6 Column_7 Column_8 Column_9 Column_10 Column_11 Column_12 Column_13 Column_14 Column_15 Column_16 Column_17 Column_18 Column_19 Column_20 Column_21 Column_22 Column_23 Column_24 Column_25 Column_26 Column_27 Column_28 Column_29 Column_30 Column_31 Column_32 Column_33 Column_34 Column_35 Column_36 Column_37 Column_38 Column_39 Column_40 Column_41 Column_42 Column_43 Column_44 Column_45 Column_46 Column_47 Column_48 Column_49 Column_50 Column_51 Column_52 Column_53 Column_54 Column_55 Column_56 Column_57 Column_58 Column_59 Column_60 Column_61 Column_62 Column_63 Column_64 Column_65 Column_66 Column_67 Column_68 Column_69 Column_70 Column_71 Column_72 Column_73 Column_74 Column_75 Column_76 Column_77 Column_78 Column_79 Column_80 Column_81 Column_82 Column_83 Column_84 Column_85 Column_86 Column_87 Column_88 Column_89 Column_90 Column_91 Column_92 Column_93 Column_94 Column_95 Column_96 Column_97 Column_98 Column_99 Column_100 Column_101 Column_102 Column_103 Column_104 Column_105 Column_106 Column_107 Column_108 Column_109 Column_110 Column_111 Column_112 Column_113 Column_114 Column_115 Column_116 Column_117 Column_118 Column_119 Column_120 Column_121 Column_122 Column_123 Column_124 Column_125 Column_126 Column_127 Column_128 Column_129 Column_130 Column_131 Column_132 Column_133 Column_134 Column_135 Column_136 Column_137 Column_138 Column_139 Column_140 Column_141 Column_142 Column_143 Column_144 Column_145 Column_146 Column_147 Column_148 Column_149 Column_150 Column_151 Column_152 Column_153 Column_154 Column_155 Column_156 Column_157 Column_158 Column_159 Column_160 Column_161 Column_162 Column_163 Column_164 Column_165 Column_166 Column_167 Column_168 Column_169 Column_170 Column_171 Column_172 Column_173 Column_174 Column_175 Column_176 Column_177 Column_178 Column_179 Column_180 Column_181 Column_182 Column_183 Column_184 Column_185 Column_186 Column_187 Column_188 Column_189 Column_190 Column_191 Column_192 Column_193 Column_194 Column_195 Column_196 Column_197 Column_198 Column_199 Column_200 Column_201 Column_202 Column_203 Column_204 Column_205 Column_206 Column_207 Column_208 Column_209 Column_210 Column_211 Column_212 Column_213 Column_214 Column_215 Column_216 Column_217 Column_218 Column_219 Column_220 Column_221 Column_222 Column_223 Column_224 Column_225 Column_226 Column_227 Column_228 Column_229 Column_230 Column_231 Column_232 Column_233 Column_234 Column_235 Column_236 Column_237 Column_238 Column_239 Column_240 Column_241 Column_242 Column_243 Column_244 Column_245 Column_246 Column_247 Column_248 Column_249 Column_250 Column_251 Column_252 Column_253 Column_254 Column_255 Column_256 Column_257 Column_258 Column_259 Column_260 Column_261 Column_262 Column_263 Column_264 Column_265 Column_266 Column_267 Column_268 Column_269 Column_270 Column_271 Column_272 Column_273 Column_274 Column_275 Column_276 Column_277 Column_278 Column_279 Column_280 Column_281 Column_282 Column_283 Column_284 Column_285 Column_286 Column_287 Column_288 Column_289 Column_290 Column_291 Column_292 Column_293 Column_294 Column_295 Column_296 Column_297 Column_298 Column_299 Column_300 Column_301 Column_302 Column_303 Column_304 Column_305 Column_306 Column_307 Column_308 Column_309 Column_310 Column_311 Column_312 Column_313 Column_314 Column_315 Column_316 Column_317 Column_318 Column_319 Column_320 Column_321 Column_322 Column_323 Column_324 Column_325 Column_326 Column_327 Column_328 Column_329 Column_330 Column_331 Column_332 Column_333 Column_334 Column_335 Column_336 Column_337 Column_338 Column_339 Column_340 Column_341 Column_342 Column_343 Column_344 Column_345 Column_346 Column_347 Column_348 Column_349 Column_350 Column_351 Column_352 Column_353 Column_354 Column_355 Column_356 Column_357 Column_358 Column_359 Column_360 Column_361 Column_362 Column_363 Column_364 Column_365 Column_366 Column_367 Column_368 Column_369 Column_370 Column_371 Column_372 Column_373 Column_374 Column_375 Column_376 Column_377 Column_378 Column_379 Column_380 Column_381 Column_382 Column_383 Column_384 Column_385 Column_386 Column_387 Column_388 Column_389 Column_390 Column_391 Column_392 Column_393 Column_394 Column_395 Column_396 Column_397 Column_398 Column_399 Column_400 Column_401 Column_402 Column_403 Column_404 Column_405
feature_infos=none none [0:0.0090009002014994621] none [0:0.072164945304393768] none none none none none none [0:0.35103511810302734] [0:0.17201720178127289] [0:0.18601860105991364] [0:0.29102909564971924] [0:1] [0:0.475862056016922] [0:0.61926603317260742] [0:1] [0:0.67708331346511841] [0:0.096009604632854462] [0:0.056203603744506836] [0:0.015001500025391579] [0:0.03411513939499855] [0:0.2604651153087616] [0:0.57305729389190674] [0:0.85875707864761353] [0:1] [0:1] [0:1] [0:1] [0:1] [0:1] [0:1] [0:0.51205122470855713] [0:1] [0:1] [0:1] [0:0.86908692121505737] [0:1] [0:1] [0:1] [0:1] [0:1] [0:1] [0:1] [0:1] [0:1] [0:0.89508950710296631] [0:1] [0:1] [0:1] [0:1] [0:1] [0:1] [0:1] [0:1] [0:1] [0:1] [0:1] [0:1] [0:1] [0:1] [0:1] [0:1] [0:1] [0:1] [0:1] [0:1] [0:1] [0:1] [0:1] [0:1] [0:1] [0:1] [0:1] [0:1] [0:1] [0:1] [0:1] [0:1] [0:1] [0:1] [0:1] [0:1] [0:1] [0:1] [0:1] [0:1] [0:1] [0:1] [0:1] [0:1] [0:1] [0:1] [0:1] [0:1] [0:1] [0:1] [0:1] [0:1] [0:1] [0:1] [0:1] [0:1] [0:1] [0:1] [0:1] [0:1] [0:1] [0:1] [0:1] [0:1] [0:1] [0:1] [0:1] [0:1] [0:1] [0:1] [0:1] [0:1] [0:1] [0:1] [0:1] [0:1] [0:1] [0:1] [0:1] [0:1] [0:1] [0:1] [0:1] [0:1] [0:1] [0:1] [0:1] [0:1] [0:1] [0:1] [0:1] [0:1] [0:1] [0:1] [0:1] [0:1] [0:1] [0:1] [0:1] [0:1] [0:1] [0:1] [0:1] [0:1] [0:1] [0:1] [0:1] [0:1] [0:1] [0:1] [0:1] [0:1] [0:1] [0:1] [0:1] [0:1] [0:1] [0:1] [0:1] [0:1] [0:1] [0:1] [0:1] [0:1] [0:1] [0:1] [0:1] [0:1] [0:1] [0:1] [0:1] [0:1] [0:1] [0:1] [0:1] [0:1] [0:1] [0:1] [0:1] [0:1] [0:1] [0:1] [0:1] [0:1] [0:1] [0:1] [0:1] [0:1] [0:1] [0:1] [0:1] [0:1] [0:1] [0:1] [0:1] [0:1] [0:1] [0:0.97609758377075195] [0:0.73907393217086792] [0:0.60206019878387451] [0:0.25802579522132874] [0:0.98709869384765625] [0:0.51305133104324341] [0:1] [0:1] [0:1] [0:1] [0:1] [0:1] [0:1] [0:1] [0:1] [0:1] [0:0.72312700748443604] [0:1] [0:1] [0:1] [0:1] [0:1] [0:1] [0:1] [0:1] [0:1] [0:1] [0:1] [0:1] [0:1] [0:1] [0:1] [0:1] [0:1] [0:1] [0:1] [0:1] [0:1] [0:1] [0:1] [0:1] [0:1] [0:1] [0:1] [0:1] [0:1] [0:1] [0:1] [0:1] [0:1] [0:1] [0:1] [0:1] [0:1] [0:1] [0:1] [0:1] [0:1] [0:1] [0:1] [0:1] [0:1] [0:1] [0:1] [0:1] [0:1] [0:1] [0:1] [0:1] [0:1] [0:1] [0:1] [0:1] [0:1] [0:1] [0:1] [0:1] [0:1] [0:1] [0:1] [0:1] [0:1] [0:1] [0:1] [0:1] [0:1] [0:1] [0:1] [0:1] [0:1] [0:1] [0:1] [0:1] [0:1] [0:1] [0:1] [0:1] [0:1] [0:1] [0:1] [0:1] [0:1] [0:1] [0:1] [0:1] [0:1] [0:1] [0:1] [0:1] [0:1] [0:1] [0:1] [0:1] [0:1] [0:1] [0:1] [0:1] [0:1] [0:1] [0:1] [0:1] [0:1] [0:1] [0:1] [0:1] [0:1] [0:1] [0:1] [0:1] [0:1] [0:1] [0:1] [0:1] [0:1] [0:1] [0:1] [0:1] [0:1] [0:1] [0:1] [0:1] [0:1] [0:1] [0:1] [0:1] [0:1] [0:1] [0:1] [0:1] [0:1] [0:1] [0:1] [0:1] [0:1] [0:1] [0:1] [0:1] [0:1] [0:1] [0:1] [0:1] [0:1] [0:1] [0:1] [0:1] [0:1] [0:1] [0:1] [0:1] [0:1] [0:1] [0:1] [0:1] [0:1] [0:1] [0:1] [0:1] [0:1] [0:1] [0:1] [0:1] [0:1] [0:1] [0:1] [0:1] [0:1] [0:1] [0:1] [0:1] [0:1] [0:1] [0:1] [0:1] [0:1] [57.058:1186.5060000000001] [5:741] [15:955] none [4.0453228950500488:5.7361016273498535] [0.91061222553253174:8.2875757217407227]
tree_sizes=2829 2971 2964 2981 2992 2997 2978 2974 2953 2964 2978 2988 2968 3013 2975 2998 2973 3002 2998 3004 2978 2993 2977 3008 2990 2982 2981 2989 3005 2972 2982 2977 2967 2958 2988 2961 2975 2968 3018 2986 2986 2981 2980 2985 2983 2973 2956 2988 3005 2981 2989 3003 2984 3000 2973 3009 2969 3013 2973 2964 2997 2982 3002 3006 2995 2965 2993 3012 2968 2997 2972 2981 2986 2978 2982 2993 2986 2981 3034 3003 2983 2988 3024 2978 2988 3009 3000 3010 3000 3025 2971 3015 3018 2994 2971 3017 2993 2993 3016 3047 2994 2987 3032 3002 3003 2989 2990 3015 3025 3021 2978 3026 2955 2984 2994 2991 2993 3006 2981 2991 3025 3011 2988 2999 3019 3003 3013 3022 3011 2999 3024 2967 3036 2994 2995 3000 2991 2992 2973 3019 2973 3023 2991 2940 2983 2996 2991 2999 2975 3028 3005 2993 2986 2986 2963 3004 2995 3009 3011 3019 3007 3002 2985 2995 2985 3012 3012 3020 3015 2989 2972 2991 2991 3011 2967 3018 3007 2979 3000 2974 2988 2998 3020 2985 2990 2959 3000 2992 2996 3023 2949 3003 2951 3024 3002 3002 3004 3022 3022 2977 3001 3020 2991 2974 3046 2995 3021 2990 2966 2989 2991 2999 2959 3004 3008 2993 2941 2969 2980 2978 3001 2969 3017 2982 2973 2973 2995 3009 2968 3009 2995 2952 2984 2976 3022 2975 2994 2979 3005 2994 3020 3011 3005 3007 3009 2948 2987 2972 2945 2976 3018 2970 2956 3012 2979 3018 3019 2999 2947 2992 2977 2971 2925 2985 2975 2927 2981 2980 3019 2992 2972 2993 3006 2991 2967 2984 2949 2960 2950 3022 2972 2996 2949 2992 2979 2984 2944 3011 3002 3004 3015 3009 2952 2920 2985 2985 2935 3011 2992 2922

Tree=0
num_leaves=31
num_cat=0
split_feature=63 400 58 200 400 59 200 78 402 50 50 77 31 400 83 400 200 76 55 69 47 400 400 61 73 400 76 200 400 402
split_gain=83039.8 58494 42932.6 23311.3 17739.5 13506.5 9593.46 9111.22 7429.41 6749.55 6664.25 5743.16 5047.74 4869.63 4811.13 3695.43 3329.13 3306.63 2933.86 2817.81 2661.27 2625.31 2453.08 2361.69 2338.92 2225.01 2132.55 2073.68 1980.51 1959.12
threshold=0.0060051078908145436 253.95300000000003 0.003008445724844933 0.020026062615215782 252.14900000000003 0.0029971561161801223 0.30109420418739324 0.0030031560454517607 101.50000000000001 0.0019961160141974692 0.015005440451204778 0.0069907514844089755 0.0019880795152857904 316.03100000000001 0.0019804922631010418 301.04000000000002 0.039034796878695495 0.0220035444945097 0.00800497690215707 0.0059943122323602447 0.010286890435963871 297.19200000000006 216.16050000000004 0.0031007759971544151 0.16709968447685244 187.08500000000004 0.018009909428656105 0.0090049547143280523 350.07950000000005 103.50000000000001
decision_type=2 2 2 2 2 2 2 2 2 2 2 2 2 2 2 2 2 2 2 2 2 2 2 2 2 2 2 2 2 2
left_child=2 8 4 9 29 13 11 16 25 23 20 27 28 -5 -8 -9 24 -10 -13 -15 -7 -12 -18 -3 -4 -2 -21 -6 -11 -1
right_child=1 3 7 5 6 10 14 15 17 12 21 18 -14 19 -16 -17 22 -19 -20 26 -22 -23 -24 -25 -26 -27 -28 -29 -30 -31
leaf_value=6.160505030738773 6.1647645232870989 6.315710772217237 6.1478292559708603 6.5066242528156826 6.2482902168252119 6.415125609296461 6.5557977232088627 6.193729074575999 6.2836762637450319 6.4013231399227593 6.4249978803326648 6.4861167561098378 6.3139600024318696 6.6640169737872705 6.3923283778693269 6.3007937768434656 6.1357870541459771 6.3653681678920995 6.3643179208017706 6.5070751095153332 6.2964452327519362 6.5326626022898102 6.2423160691402 6.1403292107965584 6.0514146457712634 6.267525649736692 6.6134497019110308 6.3431029373597125 6.5000641270676498 6.2605300026595589
leaf_weight=959 1195 390 3539 2669 1312 1377 982 1345 2675 1275 867 702 1250 1082 831 2011 837 2307 1672 899 719 1632 1525 378 765 942 990 1029 844 1000
leaf_count=959 1195 390 3539 2669 1312 1377 982 1345 2675 1275 867 702 1250 1082 831 2011 837 2307 1672 899 719 1632 1525 378 765 942 990 1029 844 1000
internal_value=6.3384 6.40526 6.26077 6.46331 6.34352 6.5038 6.38312 6.1907 6.28805 6.36315 6.44016 6.34554 6.39365 6.55564 6.48087 6.25788 6.15687 6.32151 6.40033 6.59968 6.37441 6.49531 6.20457 6.22939 6.13069 6.21006 6.56282 6.28997 6.44065 6.21156
internal_weight=40000 21491 18509 14372 8487 10235 6528 10022 7119 4137 4595 4715 3369 5640 1813 3356 6666 4982 2374 2971 2096 2499 2362 768 4304 2137 1889 2341 2119 1959
internal_count=40000 21491 18509 14372 8487 10235 6528 10022 7119 4137 4595 4715 3369 5640 1813 3356 6666 4982 2374 2971 2096 2499 2362 768 4304 2137 1889 2341 2119 1959
is_linear=0
shrinkage=1


Tree=1
num_leaves=31
num_cat=0
split_feature=29 400 73 77 200 400 50 61 55 77 59 63 400 64 63 200 400 76 77 76 63 63 147 27 164 109 57 402 73 59
split_gain=79757.5 46743.9 31725.3 28710.8 16293.8 14354.8 10922 8377.01 8176.41 7865.72 6342.19 6188.74 5853.73 4374.25 4209.69 4129.75 3934.45 3443.2 2676.86 2663.29 2621.72 2538.16 2361.46 2261.48 2244.47 2086.44 2033.26 1997.4 1987.32 1900.36
threshold=0.0069968535099178561 242.99300000000002 0.21514964103698733 0.011007157620042564 0.065023574978113188 265.01500000000004 0.0084656178951263445 0.010006061755120756 0.099019512534141554 0.010995055548846723 1.0000000180025095e-35 0.011015255935490133 323.96900000000005 0.0070132305845618257 0.0040028702933341273 0.46918602287769323 335.16600000000005 0.030926155857741836 0.032009134069085128 0.00050990027375519287 0.0010010520345531406 0.0019398660515435042 0.092622172087430968 0.047031762078404434 0.0029673655517399315 0.00050077727064490329 0.042010504752397544 256.50000000000006 0.039033200591802604 0.0040002001915127048
decision_type=2 2 2 2 2 2 2 2 2 2 2 2 2 2 2 2 2 2 2 2 2 2 2 2 2 2 2 2 2 2
left_child=1 11 4 10 9 13 7 -7 12 21 19 -1 27 -5 22 28 29 -10 -14 -2 -12 -3 -4 -22 -9 -20 -18 -6 -8 -11
right_child=3 2 14 5 8 6 15 24 17 16 20 -13 18 -15 -16 -17 26 -19 25 -21 23 -23 -24 -25 -26 -27 -28 -29 -30 -31
leaf_value=-0.1291987893000002 -0.1152076523302468 -0.068269360295349357 -0.090353044217369366 -0.14817497602667767 0.13791463765325679 0.012382463811649256 0.088883756315616055 -0.22487327464472104 0.035532795105487035 0.097527738988450546 -0.20371529837961375 -0.016531939850231932 0.19638641638656892 -0.043756948631170522 -0.0045172903469226661 0.18711168199588346 0.20620156926428859 0.1849448639873072 0.35586827084212236 -0.01556581975188707 -0.079552933828650307 0.048187201812272866 -0.25097957670437487 -0.20131553224856399 -0.077184192776560551 0.2490849724523202 0.068480319534005088 0.22718066892296115 -0.015796160476401751 -0.016260250826305316
leaf_weight=2084 2749 1029 471 1944 2757 2939 1561 531 1219 1168 3284 2936 1374 2072 685 871 1123 564 710 887 1001 858 445 616 499 1286 352 811 639 535
leaf_count=2084 2749 1029 471 1944 2757 2939 1561 531 1219 1168 3284 2936 1374 2072 685 871 1123 564 710 887 1001 858 445 616 499 1286 352 811 639 535
internal_value=1.14589e-09 0.069181 0.112404 -0.0720551 0.136871 -0.0188693 0.0241616 -0.0306199 0.178296 0.0655435 -0.140934 -0.0633044 0.202839 -0.0943019 -0.0982739 0.0949619 0.113557 0.0827949 0.250096 -0.0909001 -0.178054 -0.0153177 -0.168387 -0.125939 -0.153323 0.287069 0.173335 0.158205 0.058479 0.0617811
internal_weight=40000 20407 15387 19593 13786 11056 7040 3969 8721 5065 8537 5020 6938 4016 1601 3071 3178 1783 3370 3636 4901 1887 916 1617 1030 1996 1475 3568 2200 1703
internal_count=40000 20407 15387 19593 13786 11056 7040 3969 8721 5065 8537 5020 6938 4016 1601 3071 3178 1783 3370 3636 4901 1887 916 1617 1030 1996 1475 3568 2200 1703
is_linear=0
shrinkage=0.05


Tree=2
num_leaves=31
num_cat=0
split_feature=51 400 58 31 400 200 400 400 41 51 200 69 67 51 41 63 400 27 400 200 59 73 76 200 200 400 70 75 402 64
split_gain=69456.2 65624.8 38778.4 16056.5 13255.7 9187.24 8512.27 8039.25 7215.31 6133.73 4939.64 4768.07 4289.75 3860.23 3613.09 3465.2 3285.42 3167.42 2768.75 2761.42 2707.62 2543.44 2458.7 2397.03 2303.03 2277.38 2201.73 2168.92 1675.29 1647.94
threshold=0.012024696450680496 242.99300000000002 0.0039113494567573079 0.00096559937810525309 246.10200000000003 0.08505744114518167 308.08350000000007 276.18450000000007 0.15209455043077472 0.0019011475378647449 0.039034796878695495 0.036005074158310897 0.00098833127412945054 0.0019011475378647449 0.10978000983595849 0.049012254923582084 493.3060000000001 0.0218545300886035 312.06350000000003 0.097048539668321623 0.0013413822744041683 0.070019789040088667 0.017004251480102543 0.19911932945251468 0.12627884000539782 516.7850000000002 0.00050331783131696295 0.017023577354848388 117.50000000000001 0.015535995829850437
decision_type=2 2 2 2 2 2 2 2 2 2 2 2 2 2 2 2 2 2 2 2 2 2 2 2 2 2 2 2 2 2
left_child=2 8 4 6 28 13 14 -4 22 19 -5 16 21 20 23 -13 24 -11 -12 27 26 25 -2 -3 -8 -7 -6 -9 -1 -10
right_child=1 3 7 10 5 12 11 9 29 17 18 15 -14 -15 -16 -17 -18 -19 -20 -21 -22 -23 -24 -25 -26 -27 -28 -29 -30 -31
leaf_value=-0.1749302574975618 -0.064900023115235364 0.090151352777096239 -0.19676747355918542 -0.021858575598620159 0.042037996306066576 0.16740266637627979 0.18087723891535917 -0.14705493655008126 -0.1669914235020846 -0.02207550954470305 0.031306936989494404 0.085786529824799396 0.045053037880627755 0.043418714901279853 0.038259133318904431 0.21132498530951477 0.49782024053465418 -0.12691976364994026 0.13624731774404372 -0.073650588295121583 -0.15144556693155387 -0.03971529392887363 0.0074592151147982516 0.17879204576722391 0.26749496786426125 0.42647126952370445 -0.069658389637191745 -0.24861771152205817 -0.068250511215533369 -0.065554806179049629
leaf_weight=821 2428 1428 3435 1722 744 1251 1349 1955 1574 2314 1165 1171 1559 1827 1309 1036 119 1046 1365 913 542 139 2273 1637 1780 91 1084 719 667 537
leaf_count=821 2428 1428 3435 1722 744 1251 1349 1955 1574 2314 1165 1171 1559 1827 1309 1036 119 1046 1365 913 542 139 2273 1637 1780 91 1084 719 667 537
internal_value=2.02401e-10 0.0630074 -0.0688969 0.124642 0.00880403 0.0367495 0.159759 -0.134197 -0.0643966 -0.103258 0.0434642 0.201425 0.102943 -0.0111963 0.107796 0.144716 0.239958 -0.0547145 0.087925 -0.148729 -0.0532983 0.163882 -0.0299133 0.137494 0.230152 0.18497 -0.0241977 -0.174364 -0.127111 -0.141188
internal_weight=40000 20893 19107 14081 8725 7237 9829 10382 6812 6947 4252 5455 3040 4197 4374 2207 3248 3360 2530 3587 2370 1481 4701 3065 3129 1342 1828 2674 1488 2111
internal_count=40000 20893 19107 14081 8725 7237 9829 10382 6812 6947 4252 5455 3040 4197 4374 2207 3248 3360 2530 3587 2370 1481 4701 3065 3129 1342 1828 2674 1488 2111
is_linear=0
shrinkage=0.05


Tree=3
num_leaves=31
num_cat=0
split_feature=29 400 65 51 400 59 58 51 402 59 58 69 400 41 181 152 76 400 400 51 69 102 400 400 51 147 59 51 50 47
split_gain=66982.4 40458 27101 17631.9 17426.7 11984.8 10719.8 7474.37 5897.97 5589.05 4787.74 4628.6 4570.48 3605.69 2946.73 2859.88 2616.6 2599.85 2433.8 2746.45 2208.33 2111.4 1950.54 1931.2 1901.96 1852.85 1592.88 1570.61 1477.36 1456.96
threshold=0.0029112143674865369 253.95300000000003 0.0060051078908145436 0.010818236507475378 242.99300000000002 0.0041928905993700036 0.0046792747452855119 0.044005233794450767 101.50000000000001 0.0083807432092726248 0.0069525006692856559 0.014003501273691656 356.91200000000009 0.15209455043077472 0.00083896398427896212 0.028731063939630989 0.011968885548412802 340.14500000000004 246.10200000000003 0.0010061229113489392 0.056040182709693916 0.0052875105757266292 343.08700000000005 516.7850000000002 0.060021761804819114 0.16702727973461154 0.017657452262938026 0.025001250207424167 0.0026212364900857214 0.002301523345522583
decision_type=2 2 2 2 2 2 2 2 2 2 2 2 2 2 2 2 2 2 2 2 2 2 2 2 2 2 2 2 2 2
left_child=1 8 6 5 13 11 18 10 27 12 17 -3 21 -4 26 -9 -10 -6 -2 29 23 -5 -12 -14 -11 -7 -8 -1 -16 -20
right_child=2 3 4 9 7 25 14 15 16 24 22 -13 20 -15 28 -17 -18 -19 19 -21 -22 -23 -24 -25 -26 -27 -28 -29 -30 -31
leaf_value=-0.16553838230800388 -0.13007384869698999 0.14277521183902356 -0.058553212363385593 0.12108952201657464 -0.0010597147609163623 -0.048237605316752842 -0.15780936871919338 0.059594927514748035 -0.054270462401100117 0.045279951120840073 -0.084577223941524088 0.015143056794856488 0.2770878359665731 -0.15923377875642963 -0.13363320920570662 0.1688407249834124 0.032139669704756679 0.090087609281763445 -0.060325464723101352 0.024527579671497504 0.16694011561087488 0.19223382692135862 -0.0010292980021812679 0.53414311067034037 0.13869254563898856 -0.1914722174718734 -0.21909776906578463 -0.069737883295276526 -0.028589871052224311 -0.23552929807920009
leaf_weight=925 825 2002 2228 1852 1601 1221 2615 1464 1646 1011 1528 1101 1155 1480 1222 1014 1873 1530 1626 1222 480 2387 1287 78 1182 277 1783 796 461 128
leaf_count=925 825 2002 2228 1852 1601 1221 2615 1464 1646 1011 1528 1101 1155 1480 1222 1014 1873 1530 1626 1222 480 2387 1287 78 1182 277 1783 796 461 128
internal_value=-2.53829e-10 0.0715818 -0.0584841 0.119664 -0.00841513 0.0414198 -0.119953 0.0313426 -0.0453752 0.163863 0.000938233 0.097489 0.189004 -0.0987386 -0.161125 0.104298 -0.00827837 0.0434805 -0.0540845 -0.0330189 0.257928 0.161151 -0.0463796 0.293349 0.0956282 -0.0747236 -0.182656 -0.121229 -0.10486 -0.0731111
internal_weight=40000 17986 22014 12746 12132 4601 9882 8424 5240 8145 5946 3103 5952 3708 6081 2478 3519 3131 3801 2976 1713 4239 2815 1233 2193 1498 4398 1721 1683 1754
internal_count=40000 17986 22014 12746 12132 4601 9882 8424 5240 8145 5946 3103 5952 3708 6081 2478 3519 3131 3801 2976 1713 4239 2815 1233 2193 1498 4398 1721 1683 1754
is_linear=0
shrinkage=0.05


Tree=4
num_leaves=31
num_cat=0
split_feature=63 58 152 72 47 402 92 26 51 70 126 51 299 402 73 58 26 287 41 41 77 287 73 390 200 402 59 92 73 77
split_gain=59216.3 28287.8 22292 14790.6 10186 8269.62 6758.34 6101.2 5728.47 5186.99 4627.63 4367.05 3749.56 3224.01 2975.24 2662.81 2537.09 2513.72 2408.02 2294.3 2252.78 2231.78 2108.99 1963.69 1757.43 1751.62 1685.22 1616.68 1577.4 1483.25
threshold=0.0045644897036254415 0.0016877649468369784 1.0000000180025095e-35 0.00085325224790722143 0.0016863454366102817 103.50000000000001 0.0010010520345531406 0.00050990027375519287 0.052014160901308067 0.00050331783131696295 0.0040028702933341273 0.0070091220550239095 0.0019981040386483078 304.50000000000006 0.14608422666788104 0.010838156100362541 0.0059215428773313769 0.0010000500478781762 0.094854492694139494 0.1130223758518696 0.0039761590305715808 0.0010020580375567081 0.020000999793410305 1.0000000180025095e-35 0.021011561155319217 270.50000000000006 0.012008611112833025 0.00050102901877835404 0.070019789040088667 0.003006174112670124
decision_type=2 2 2 2 2 2 2 2 2 2 2 2 2 2 2 2 2 2 2 2 2 2 2 2 2 2 2 2 2 2
left_child=1 5 4 10 7 27 14 17 15 13 12 -6 -4 22 18 -5 -13 24 20 -9 -3 -10 -7 -23 -2 -12 -8 -1 -15 -11
right_child=2 6 3 8 11 9 26 19 21 29 25 16 -14 28 -16 -17 -18 -19 -20 -21 -22 23 -24 -25 -26 -27 -28 -29 -30 -31
leaf_value=-0.11972168433320661 0.030367785238371598 -0.12988002428157983 0.1487514838270538 0.052291052323283772 -0.20731112611721217 0.077974349665868581 -0.031207476860083447 0.0011417226385338861 0.14802377037982281 -0.06141981165194757 0.17194506054212691 -0.015011831005633292 0.030507414014435436 0.23813375170842466 -0.2259607478182519 -0.025106362748219559 -0.13851270523100984 0.010025928613868541 -0.16403167672382005 -0.093203697042289188 -0.028348599533596287 -0.013703173374016681 -0.093819390325474428 0.099694617374471925 0.11918313350604393 0.25601590887789899 -0.10281716704474438 -0.014565619072127313 -0.016006203892994935 0.020808536143982762
leaf_weight=1140 792 1869 2006 2087 622 2018 1836 1908 1347 947 2039 1293 1007 436 1083 2377 613 1396 3354 973 772 571 196 1152 1877 890 1487 538 71 1303
leaf_count=1140 792 1869 2006 2087 622 2018 1836 1908 1347 947 2039 1293 1007 436 1083 2377 613 1396 3354 973 772 571 196 1152 1877 890 1487 538 71 1303
internal_value=-1.93571e-10 -0.0705813 0.0524362 0.0937542 -0.0063353 0.00996894 -0.122074 0.0249418 0.0472346 0.0423662 0.152738 -0.092273 0.109232 0.0888106 -0.14969 0.0110783 -0.0547317 0.0643922 -0.135912 -0.0307216 -0.100201 0.0998084 0.0627659 0.0621147 0.092828 0.197491 -0.0632519 -0.0860066 0.202544 -0.0138005
internal_weight=40000 17050 22950 13476 9474 6649 10401 6946 7534 4971 5942 2528 3013 2721 7078 4464 1906 4065 5995 2881 2641 3070 2214 1723 2669 2929 3323 1678 507 2250
internal_count=40000 17050 22950 13476 9474 6649 10401 6946 7534 4971 5942 2528 3013 2721 7078 4464 1906 4065 5995 2881 2641 3070 2214 1723 2669 2929 3323 1678 507 2250
is_linear=0
shrinkage=0.05


Tree=5
num_leaves=31
num_cat=0
split_feature=77 59 58 51 152 61 401 27 200 67 89 27 51 76 164 27 42 200 271 401 26 67 147 73 81 41 30 45 200 263
split_gain=53701.5 22503.9 19640.2 13791.3 13631.4 7083.37 6971.45 6147.68 5876.18 5172.59 4020.37 3862.95 5106.11 3076.59 3049.8 3037.16 2892.01 2787.78 2722.36 2528.85 2382.01 2253.74 1924.79 1894.78 1642.79 1548.36 1531.76 1437.05 1404.53 1373.17
threshold=0.012010215781629087 0.0029971561161801223 0.0028188991127535705 0.030016515403985981 1.0000000180025095e-35 0.014936528168618681 151.50000000000003 0.0030039094854146246 0.12407516688108446 0.012994156684726478 0.017004251480102543 0.015551370102912189 0.0010061229113489392 0.0010010520345531406 0.0010010520345531406 0.0046620299108326444 0.0050002499483525762 0.66016244888305675 0.0019961160141974692 183.50000000000003 0.00050990027375519287 0.034008502960205085 0.07304211333394052 0.010000499896705152 0.019760065712034706 0.17011488229036334 0.00099608179880306146 0.008602154906839134 0.74057403206825267 0.00099905201932415388
decision_type=2 2 2 2 2 2 2 2 2 2 2 2 2 2 2 2 2 2 2 2 2 2 2 2 2 2 2 2 2 2
left_child=2 4 8 5 7 19 15 18 13 17 -11 12 22 27 -7 29 28 20 24 -3 -6 -9 -4 -21 -2 -14 -8 -1 -10 -5
right_child=1 3 11 6 9 14 26 21 16 10 -12 -13 25 -15 -16 -17 -18 -19 -20 23 -22 -23 -24 -25 -26 -27 -28 -29 -30 -31
leaf_value=-0.057105882080892012 0.13834448991049811 -0.057001067758010088 -0.12212538182628688 0.068254267480530428 0.17168441001579535 -0.20571758560033709 0.13253554363644424 0.010387927609364193 0.051060846851559372 0.024608872338834274 0.15027476192062253 -0.15859877536797984 -0.011461556266348129 0.019829392198730131 -0.075324424219036332 -0.063949254371876693 -0.0095518679763573252 0.22648166193208019 0.018384950015366257 0.11138891663952211 0.077395512230955421 -0.087336503272301191 -0.24973815486280371 -0.01251423508862688 0.041259797305662642 -0.12243694002000294 0.057854801285837712 -0.14586878369578524 0.15072055918709296 -0.036895008811549154
leaf_weight=2203 1725 2250 2133 1124 2121 970 1691 2384 746 1449 1135 4129 1637 1218 834 1320 1107 1421 1105 463 979 784 343 925 583 389 1156 575 672 429
leaf_count=2203 1725 2250 2133 1124 2121 970 1691 2384 746 1449 1135 4129 1637 1218 834 1320 1107 1421 1105 463 979 784 343 925 583 389 1156 575 672 429
internal_value=-2.34933e-10 0.04524 -0.0741898 -0.00744912 0.0882121 -0.0644288 0.0467613 0.0363633 -0.00869881 0.136237 0.0798065 -0.12367 -0.0916358 -0.0464281 -0.145436 -0.00818767 0.0510106 0.16849 0.0829224 -0.0242592 0.141907 -0.0137964 -0.139804 0.0288166 0.113821 -0.0327693 0.102212 -0.0754783 0.0982903 0.0392079
internal_weight=40000 24848 15152 11162 13686 5442 5720 6581 6521 7105 2584 8631 4502 3996 1804 2873 2525 4521 3413 3638 3100 3168 2476 1388 2308 2026 2847 2778 1418 1553
internal_count=40000 24848 15152 11162 13686 5442 5720 6581 6521 7105 2584 8631 4502 3996 1804 2873 2525 4521 3413 3638 3100 3168 2476 1388 2308 2026 2847 2778 1418 1553
is_linear=0
shrinkage=0.05


Tree=6
num_leaves=31
num_cat=0
split_feature=29 400 65 59 400 200 58 64 76 77 76 402 200 200 55 200 400 47 400 29 400 104 165 77 102 47 215 400 104 76
split_gain=52546.5 32342 18249 17070.1 13728.3 10192.9 7870.57 7458.6 4627.54 4355.92 4113.52 3753.71 3402.22 3376.3 3348.21 2667.85 2495.34 2161.8 2046.29 1998.74 2068.95 1881.95 1859.23 1827.08 1796.88 1740.44 1482.06 1439.05 1374.4 1320.53
threshold=0.0069968535099178561 242.99300000000002 0.0087304762564599531 0.014997866470366718 294.60200000000003 0.034017406404018409 0.0070050228387117395 0.0030039094854146246 0.01601683255285025 0.0080084162764251249 0.0040055476129055032 116.50000000000001 0.0089914682321250456 0.46918602287769323 0.054011009633541114 0.21433240175247195 317.93350000000004 0.003202564083039761 322.20050000000009 0.0009980580070987346 304.09550000000007 0.0072683249600231656 0.0026827645488083367 0.0028510465053841476 0.025014284066855911 0.0099064419046044367 0.017018737271428112 186.04700000000003 0.0019981040386483078 0.05004722252488137
decision_type=2 2 2 2 2 2 2 2 2 2 2 2 2 2 2 2 2 2 2 2 2 2 2 2 2 2 2 2 2 2
left_child=1 10 6 5 11 9 15 12 14 -3 -1 28 -5 21 19 17 -10 23 -11 20 -7 -6 -8 -2 -13 -12 -22 -17 -4 -9
right_child=2 3 4 7 13 8 22 29 16 18 25 24 -14 -15 -16 27 -18 -19 -20 -21 26 -23 -24 -25 -26 -27 -28 -29 -30 -31
leaf_value=-0.10366617308815701 -0.097507514839299272 -0.016177739738439636 -0.14914559223341803 -0.17592895365814154 -0.020671462323986069 0.10265505763822523 -0.16332972111308552 0.035301524636035586 0.15626230330263827 0.041193773109355541 0.0061576744690403128 -0.052118644917841794 -0.028187833680776399 0.12704059639614196 0.044896357464782544 -0.1117347058228399 0.24155417244242969 -0.19053712084817964 0.13675621796616327 0.069243468137181977 0.21815442954518971 0.055014192226130292 -0.088995753979947523 -0.021347470711438745 0.037375326528566115 -0.096696823443626123 0.11303437798116947 0.050476053431786232 -0.074276616225914388 0.12351759574515538
leaf_weight=2280 1795 1422 1220 575 1287 943 4214 1139 1812 989 2236 1946 1209 1124 1122 169 1628 378 1292 712 1430 2270 1051 1403 788 504 438 716 1232 676
leaf_count=2280 1795 1422 1220 575 1287 943 4214 1139 1812 989 2236 1946 1209 1124 1122 169 1628 378 1292 712 1430 2270 1051 1403 788 504 438 716 1232 676
internal_value=-3.13512e-10 0.056153 -0.0584859 0.0921063 -0.0105773 0.121206 -0.107089 -0.0032042 0.152671 0.0525047 -0.0540489 -0.0666096 -0.0758062 0.0515 0.120118 -0.058225 0.196627 -0.0774607 0.0953221 0.144075 0.163029 0.0276295 -0.148491 -0.0640952 -0.0263245 -0.0127615 0.193506 0.0195002 -0.111528 0.0681578
internal_weight=40000 20407 19593 15387 9867 11788 9726 3599 8085 3703 5020 5186 1784 4681 4645 4461 3440 3576 2281 3523 2811 3557 5265 3198 2734 2740 1868 885 2452 1815
internal_count=40000 20407 19593 15387 9867 11788 9726 3599 8085 3703 5020 5186 1784 4681 4645 4461 3440 3576 2281 3523 2811 3557 5265 3198 2734 2740 1868 885 2452 1815
is_linear=0
shrinkage=0.05


Tree=7
num_leaves=31
num_cat=0
split_feature=29 400 73 65 200 400 51 63 58 55 200 402 147 69 63 400 400 104 400 200 70 122 41 51 179 400 83 200 200 81
split_gain=47634 29386.7 23392.4 14982.6 11852.9 10899.6 6518.07 5324.67 5224.73 4531.71 4330.26 3938.65 3685.38 3190.35 2698.61 2931.58 2571.12 2322.3 2014.78 2001.87 1934.17 1772.39 1722.46 1601.99 1473.7 1398.98 1390.64 1378.28 1367.74 1357.46
threshold=0.011988624464720489 253.95300000000003 0.21514964103698733 0.0087304762564599531 0.10202550888061525 242.99300000000002 0.0020021040691062812 0.011015255935490133 0.0070050228387117395 0.20702124387025836 0.49408352375030523 296.50000000000006 0.092622172087430968 0.04102656431496144 0.0049878121353685865 356.91200000000009 366.00200000000001 0.0070152885746210822 186.04700000000003 0.15126512944698337 0.00050331783131696295 0.00093635913799516868 0.14209715276956561 0.041997434571385391 0.0034266144502907996 329.11700000000002 0.0012911561643704774 0.2900595366954804 0.052007328718900687 0.0010010520345531406
decision_type=2 2 2 2 2 2 2 2 2 2 2 2 2 2 2 2 2 2 2 2 2 2 2 2 2 2 2 2 2 2
left_child=1 7 4 8 6 22 20 28 19 11 17 14 -4 16 26 -16 -8 -7 -9 -2 -3 -14 -5 -12 -10 -19 -6 -20 -1 -13
right_child=3 2 12 5 9 10 13 18 24 -11 23 29 21 -15 15 -17 -18 25 27 -21 -22 -23 -24 -25 -26 -27 -28 -29 -30 -31
leaf_value=-0.14061465314412788 -0.085044050577792546 0.03833874921795119 -0.026274417417215659 -0.058321254710191575 0.1287504942270801 -0.046567214115515614 0.089091991803540313 -0.051523660004351636 -0.15490544874094073 0.045179473627029426 0.043796736774930303 0.30237111116217064 -0.25241625670718371 0.023114733382823122 0.13957733429729699 0.2335520174013638 0.19314796716195679 -0.010794782675742 -0.016893542861228475 0.0035629443863213644 -0.060860906522635108 -0.096626271222664109 -0.13700415326585144 0.15276811237026144 -0.073699753759906103 0.060393803003928159 0.033814467889631619 0.059208350023991677 -0.067410715529513845 0.19107989105988632
leaf_weight=1089 2781 836 1208 1368 878 1760 2277 1468 4218 990 650 546 338 1312 3254 1114 803 1304 1137 827 1192 397 1415 701 644 1466 688 1248 1541 550
leaf_count=1089 2781 836 1208 1368 878 1760 2277 1468 4218 990 650 546 338 1312 3254 1114 803 1304 1137 827 1192 397 1415 701 644 1466 688 1248 1541 550
internal_value=-1.74795e-10 0.0472316 0.0828884 -0.0630325 0.104804 -0.0168033 0.0541732 -0.0428755 -0.110321 0.145335 0.0217754 0.159439 -0.0799881 0.0884077 0.143355 0.163544 0.116221 -0.00165505 -0.00543801 -0.0647342 -0.019968 -0.168268 -0.0983271 0.100339 -0.144149 0.0268812 0.0870417 0.0229283 -0.0977222 0.246522
internal_weight=40000 22866 16383 17134 14440 8664 6420 6483 8470 8020 5881 7030 1943 4392 5934 4368 3080 4530 3853 3608 2028 735 2783 1351 4862 2770 1566 2385 2630 1096
internal_count=40000 22866 16383 17134 14440 8664 6420 6483 8470 8020 5881 7030 1943 4392 5934 4368 3080 4530 3853 3608 2028 735 2783 1351 4862 2770 1566 2385 2630 1096
is_linear=0
shrinkage=0.05


Tree=8
num_leaves=31
num_cat=0
split_feature=63 400 58 51 61 400 402 400 200 57 69 73 77 400 77 76 73 109 402 400 200 147 229 59 400 400 400 31 52 105
split_gain=42606.2 32742.7 20057.2 13492.8 9457.14 8899.9 5463.65 5046.05 4878 4249.77 4062.84 4297.44 3551.5 3139.75 2739.69 2649.8 2561.09 2406.46 2191.3 2018.15 1875.05 1873.64 1870.36 1838.43 1688.08 1551.3 1532.36 1467.8 1324.1 1231.75
threshold=0.0045644897036254415 266.0560000000001 0.0016877649468369784 0.02599956747144461 0.014936528168618681 302.06200000000007 101.50000000000001 302.06200000000007 0.021011561155319217 0.0060003001708537349 0.0050044236704707154 0.070019789040088667 0.0080084162764251249 319.19650000000007 0.091176752001047148 0.028020091354846958 0.1282356530427933 0.00099706789478659652 90.500000000000014 187.08500000000004 0.49408352375030523 0.088053859770298018 0.99904990196228038 0.00087040179641917359 526.41300000000012 338.18250000000006 356.08750000000003 0.0040002001915127048 0.020720509812235836 0.69536083936691295
decision_type=2 2 2 2 2 2 2 2 2 2 2 2 2 2 2 2 2 2 2 2 2 2 2 2 2 2 2 2 2 2
left_child=2 6 5 4 9 18 19 28 27 26 11 14 21 23 20 -8 -14 -15 -1 -2 -7 -9 25 -10 -16 -11 -3 -5 -4 -12
right_child=1 3 7 8 -6 10 15 12 13 22 29 -13 16 17 24 -17 -18 -19 -20 -21 -22 -23 -24 -25 -26 -27 -28 -29 -30 -31
leaf_value=-0.13166170172128919 -0.13585961473131494 0.092883875353207412 -0.15132525980304559 0.089973670712338749 -0.090971558680990716 0.07436553783294568 -0.032748647946531352 -0.094558944468800615 0.15682094631773111 -0.0022532268913287678 0.0059646632035253886 -0.10892030113420562 0.0012184840434693587 0.26177228741750952 0.2454884235771454 0.03387585679997801 -0.11184721955728226 0.16343791233645388 -0.032818108260481628 -0.047840551225909765 0.21181333416212375 -0.22165641603067299 -0.24299176379305421 0.077511553573099912 0.65030022967478329 0.069528297790799776 0.19113407265112611 -0.0089058871045328159 -0.060919385522143515 0.24992848148323454
leaf_weight=789 1308 1061 4134 1391 1200 904 3679 2915 1449 1389 2173 191 1901 827 230 2511 680 2512 1938 1297 342 322 61 1474 29 1643 634 514 449 53
leaf_count=789 1308 1061 4134 1391 1200 904 3679 2915 1449 1389 2173 191 1901 827 230 2511 680 2512 1938 1297 342 322 61 1474 29 1643 634 514 449 53
internal_value=-9.76765e-11 0.0444782 -0.0598695 0.0915541 0.0345434 0.00795739 -0.0312875 -0.103229 0.133354 0.0660007 0.0561936 0.114495 -0.0723191 0.154667 0.142849 -0.00572213 -0.0285702 0.187793 -0.0614164 -0.0920359 0.112092 -0.107202 0.0311292 0.116827 0.290815 0.0366442 0.129634 0.0632944 -0.142468 0.0117733
internal_weight=40000 22950 17050 14155 5988 6649 8795 10401 8167 4788 3922 1696 5818 6262 1505 6190 2581 3339 2727 2605 1246 3237 3093 2923 259 3032 1695 1905 4583 2226
internal_count=40000 22950 17050 14155 5988 6649 8795 10401 8167 4788 3922 1696 5818 6262 1505 6190 2581 3339 2727 2605 1246 3237 3093 2923 259 3032 1695 1905 4583 2226
is_linear=0
shrinkage=0.05


Tree=9
num_leaves=31
num_cat=0
split_feature=51 400 58 31 400 41 69 400 41 400 73 200 200 200 102 200 200 402 400 200 103 152 75 400 73 400 41 27 200 77
split_gain=38710.7 37934.5 20740.8 10422.1 8313.69 5945.93 5121.88 5036.58 4578.51 4136.21 4121.43 3397.94 3192.45 2547.77 2517.93 2124.32 1876.51 1860.29 1834.32 1766.46 1692.46 1597.19 1580.11 1480.29 1469.4 1835.66 1467.66 1427.93 1193.18 1180.24
threshold=0.011042421683669092 242.99300000000002 0.003008445724844933 0.00096559937810525309 274.23150000000004 0.10978000983595849 0.0050044236704707154 305.09350000000006 0.21802252531051639 332.12900000000008 0.020990560762584213 0.011970749590545894 0.49408352375030523 0.49408352375030523 0.021005252376198772 0.020026062615215782 0.01400501048192382 155.50000000000003 538.45850000000007 0.029031365178525451 0.047017201781272895 0.02400120068341494 0.080059248954057707 174.08100000000005 0.0053073870949447164 486.36350000000004 0.17272549122571948 1.0000000180025095e-35 0.040031673386693008 0.0028510465053841476
decision_type=2 2 2 2 2 2 2 2 2 2 2 2 2 2 2 2 2 2 2 2 2 2 2 2 2 2 2 2 2 2
left_child=2 8 4 5 19 9 10 28 17 15 13 20 21 -6 -7 -3 22 -2 -15 -1 -9 26 29 -21 25 -11 -5 -13 -4 -8
right_child=1 3 7 12 6 14 16 11 -10 24 -12 27 -14 18 -16 -17 -18 -19 -20 23 -22 -23 -24 -25 -26 -27 -28 -29 -30 -31
leaf_value=-0.13206387115210502 -0.048141345748494685 0.043229334398326928 -0.16230043202582403 0.006793171874673239 0.083324245898844587 0.02198597900069536 -0.073182691942827824 -0.094710104721781319 -0.12052462479627364 0.20620638233640048 -0.064979737472747975 0.018185505016462846 0.10031617858792152 0.17863803552791713 0.11573016188314456 0.1315101055739106 0.030285204115886716 0.014908871292762355 0.49595542860031128 -0.12645327028498529 -0.21045007762777007 0.06291981270638379 -0.2045946695841849 -0.0067576417526067261 0.14480097723159699 0.41442508983499976 -0.07931292287499199 -0.056479088618439491 -0.10858063564332734 0.01284528429405433
leaf_weight=911 3443 852 2669 1750 1624 1739 744 2478 1733 1673 372 935 1129 511 1218 3404 1972 1772 50 361 362 825 136 908 1048 113 690 2032 1687 859
leaf_count=911 3443 852 2669 1750 1624 1739 744 2478 1733 1673 372 935 1129 511 1218 3404 1972 1772 50 361 362 825 136 908 1048 113 690 2032 1687 859
internal_value=-1.15659e-10 0.0458823 -0.052731 0.0920696 0.00516287 0.12016 0.0344147 -0.100855 -0.0501153 0.145001 0.088865 -0.0703697 0.0278398 0.115057 0.0605996 0.113837 -0.00310328 -0.0267176 0.206919 -0.078943 -0.109463 0.00277825 -0.0409653 -0.0408082 0.191801 0.21938 -0.0175565 -0.0329498 -0.141496 -0.0270829
internal_weight=40000 21389 18611 14441 8448 10047 6268 10163 6948 7090 2557 5807 4394 2185 2957 4256 3711 5215 561 2180 2840 3265 1739 1269 2834 1786 2440 2967 4356 1603
internal_count=40000 21389 18611 14441 8448 10047 6268 10163 6948 7090 2557 5807 4394 2185 2957 4256 3711 5215 561 2180 2840 3265 1739 1269 2834 1786 2440 2967 4356 1603
is_linear=0
shrinkage=0.05


Tree=10
num_leaves=31
num_cat=0
split_feature=29 400 65 73 400 69 59 63 200 63 51 402 77 400 63 58 400 64 200 152 103 76 400 105 400 76 200 200 400 400
split_gain=37425.5 23582.7 14382.5 12230.9 10829 7200.78 5637.68 5589.25 4688.07 4048.06 3836.21 3162.84 2912.66 3090.41 2745.68 2367.69 2341.72 2276.8 1880.25 1838.16 1776.71 1737.02 1679.51 1644.94 1551.33 1400.06 1304.02 1226.2 1186.13 1146.92
threshold=0.0029112143674865369 258.02750000000009 0.0060051078908145436 0.24744576960802081 292.03900000000004 0.036005074158310897 0.0011481192195788028 0.021027366630733017 0.49408352375030523 0.012004030868411066 0.026044778525829319 88.500000000000014 0.010017222259193661 508.27050000000003 0.00053476306493394088 0.0025608236901462082 486.36350000000004 0.00097443332197144638 0.0230218879878521 0.002154017449356616 0.036029372364282615 0.025014284066855911 334.13350000000008 0.0040028702933341273 201.07300000000004 0.07503725960850717 0.31906010210514074 0.37218880653381353 250.12750000000003 359.17600000000004
decision_type=2 2 2 2 2 2 2 2 2 2 2 2 2 2 2 2 2 2 2 2 2 2 2 2 2 2 2 2 2 2
left_child=1 9 6 5 11 8 14 27 12 26 15 -4 -3 22 23 -6 -10 20 -12 -5 29 -13 -14 -2 -11 -9 -1 -7 -19 -8
right_child=2 3 4 19 10 7 17 25 16 24 18 21 13 -15 -16 -17 -18 28 -20 -21 -22 -23 -24 -25 -26 -27 -28 -29 -30 -31
leaf_value=-0.10718705267986624 -0.096098826152713354 0.04863118730328575 -0.11201055459843123 -0.13328668707647981 0.058436149574213406 -0.03808827471292122 -0.14873822476066909 0.075778871012401938 0.18396838820025924 -0.030245229798110312 0.023146793792425357 -0.054418805088069913 0.096982922601677388 0.42767741114928803 0.0035384154578073676 -0.021710026253709311 0.4083470491344125 -0.13347597234188421 0.12314366501918828 0.0097503912681194873 -0.22079841012691526 0.01239072217392184 0.16729596850755632 -0.0020805706612895183 0.039457984670725074 0.15591145023145786 -0.027628874268178834 0.046789850331107836 -0.03567171457221583 -0.086042134129941106
leaf_weight=1607 2303 1416 1715 600 1521 1258 2243 1427 2129 1596 678 2877 2058 87 1664 2338 123 466 1533 359 616 1470 1446 583 1597 882 758 643 926 1081
leaf_count=1607 2303 1416 1715 600 1521 1258 2243 1427 2129 1596 678 2877 2058 87 1664 2338 123 466 1533 359 616 1470 1446 583 1597 882 758 643 926 1081
internal_value=-1.51007e-10 0.0535064 -0.0437161 0.091794 -0.00724122 0.106137 -0.0884958 0.0541143 0.136309 -0.0321067 0.0399664 -0.0545112 0.109361 0.133308 -0.0476133 0.00987907 0.196224 -0.123382 0.0924798 -0.079741 -0.142803 -0.0318262 0.125999 -0.0771062 0.00461729 0.106388 -0.0816881 -0.00937884 -0.0684137 -0.128349
internal_weight=40000 17986 22014 12428 12132 11469 9882 4210 7259 5558 6070 6062 5007 3591 4550 3859 2252 5332 2211 959 3940 4347 3504 2886 3193 2309 2365 1901 1392 3324
internal_count=40000 17986 22014 12428 12132 11469 9882 4210 7259 5558 6070 6062 5007 3591 4550 3859 2252 5332 2211 959 3940 4347 3504 2886 3193 2309 2365 1901 1392 3324
is_linear=0
shrinkage=0.05


Tree=11
num_leaves=31
num_cat=0
split_feature=200 400 50 51 400 58 400 58 31 402 69 41 400 400 55 75 41 75 73 400 51 80 51 400 77 166 400 79 47 27
split_gain=33009.6 26165.7 13293.9 12695.5 11579.3 8112.59 5832.89 5120.86 4411.8 3423.69 2700.07 2459.01 2420.87 2312.33 2234.08 2207.94 2157.89 1987.07 1841.59 1745.61 1742.59 1575.95 1343.43 1259.9 1215.13 1207.5 1195.19 1160.84 1131.53 1071.87
threshold=0.062030566856265075 212.02750000000003 0.0019961160141974692 0.025027345865964893 269.91700000000009 0.0019249723991379144 297.19200000000006 0.0023598828120157127 0.0018921493319794538 142.50000000000003 0.070043932646512999 0.087108999490737929 301.04000000000002 453.98450000000008 0.0068143296521157035 0.017023577354848388 0.087108999490737929 0.033006504178047187 0.046004721894860275 350.07950000000005 0.0040082321502268323 0.0029926873976364736 0.028994204476475719 341.09550000000007 0.051012754440307624 0.0020021040691062812 218.05450000000005 0.0040002001915127048 0.0039761590305715808 1.0000000180025095e-35
decision_type=2 2 2 2 2 2 2 2 2 2 2 2 2 2 2 2 2 2 2 2 2 2 2 2 2 2 2 2 2 2
left_child=2 9 7 5 16 14 21 12 11 22 13 -6 -1 27 18 26 -4 24 19 -3 29 -5 -2 -22 -14 -17 -9 -8 -10 -7
right_child=1 3 4 6 8 20 10 15 28 -11 -12 -13 17 -15 -16 25 -18 -19 -20 -21 23 -23 -24 -25 -26 -27 -28 -29 -30 -31
leaf_value=-0.10214008188241373 -0.11691592522748813 0.099831419566344393 -0.044666848205962811 0.1118472782433399 0.087557222719227557 0.0015464076620405566 0.23768458099207579 -0.16088375879364616 0.0040961498669319059 -0.00057397185643602512 0.10179987464321297 0.0032786545181017861 -0.0076204446367686453 0.37016529490081773 0.048100482285628743 -0.20310777103217803 -0.12204044129454356 -0.1374339267339432 -0.032698785665188496 0.2064193158596607 -0.016844620280138584 0.044139770096420561 -0.054736161925771659 0.055753798649785274 0.11591820125669661 -0.093009031692854488 -0.091948688726779346 0.15751406252540684 -0.070719217746194593 -0.072109711818415259
leaf_weight=1159 1575 977 1910 1423 2829 754 569 792 1180 1993 1478 1247 1439 159 1978 1123 1706 267 167 633 1370 2170 1937 1060 231 320 3051 2187 884 1432
leaf_count=1159 1575 977 1910 1423 2829 754 569 792 1180 1993 1478 1247 1439 159 1978 1123 1706 267 167 633 1370 2170 1937 1060 231 320 3051 2187 884 1432
internal_value=-1.90704e-10 0.0413723 -0.0498667 0.0731058 -0.0101895 0.0300809 0.118205 -0.0960477 0.0316133 -0.0529174 0.15685 0.0617733 -0.0449819 0.184762 0.0846553 -0.125957 -0.0811711 -0.0107814 0.125345 0.141738 -0.014314 0.0709552 -0.0826214 0.0148238 0.00946784 -0.178692 -0.106155 0.174066 -0.0279469 -0.0467041
internal_weight=40000 21862 18138 16357 9756 8371 7986 8382 6140 5505 4393 4076 3096 2915 3755 5286 3616 1937 1777 1610 4616 3593 3512 2430 1670 1443 3843 2756 2064 2186
internal_count=40000 21862 18138 16357 9756 8371 7986 8382 6140 5505 4393 4076 3096 2915 3755 5286 3616 1937 1777 1610 4616 3593 3512 2430 1670 1443 3843 2756 2064 2186
is_linear=0
shrinkage=0.05


Tree=12
num_leaves=31
num_cat=0
split_feature=29 400 51 178 74 58 402 51 71 400 152 200 51 200 200 95 89 51 131 58 400 400 400 88 75 91 400 136 402 400
split_gain=32030.6 18368.8 16302.2 9696.57 6541.58 5468.09 5152.55 3499.23 3384.64 3312.54 3116.57 3112.91 2800.04 2306.4 2089.21 2021.98 1949.06 1875.6 1775.86 1708.28 1505.94 1433.75 1328.19 1273.09 1269.37 1218.33 1185.92 1099.53 1050.96 1033.23
threshold=0.015000749845057728 242.99300000000002 0.0040082321502268323 0.0039880399126559505 0.0089839575812220591 0.0069525006692856559 88.500000000000014 0.0019011475378647449 0.0017605688190087678 341.09550000000007 0.016007917933166031 0.38509264588356024 0.052014160901308067 0.0028208800358697776 0.66016244888305675 0.0009980580070987346 0.013620902784168722 0.007761979242786766 0.017993706278502945 0.012841124553233387 213.02300000000002 307.05700000000007 156.15700000000004 0.010961420834064485 0.10366357862949373 0.0040028702933341273 538.45850000000007 0.0099420119076967257 375.50000000000006 335.16600000000005
decision_type=2 2 2 2 2 2 2 2 2 2 2 2 2 2 2 2 2 2 2 2 2 2 2 2 2 2 2 2 2 2
left_child=1 11 4 6 8 9 -2 24 14 13 -5 17 29 -4 -3 28 -12 -1 -6 20 -9 -14 -13 -15 -8 -20 -16 -18 -11 -7
right_child=3 2 5 10 18 12 7 19 -10 15 16 22 21 23 26 -17 27 -19 25 -21 -22 -23 -24 -25 -26 -27 -28 -29 -30 -31
leaf_value=-0.12820087044989845 -0.12244143311549782 0.04189531518881421 0.013122285569267046 -0.029289543180023275 -0.039370057651812673 -0.016522170123637953 -0.08727531929488741 -0.060436260496664798 -0.01855229203265801 0.19997081464496971 -0.0041751084973840448 -0.064376744302548791 0.046810700006513412 0.089795198713478241 0.13170569836175147 0.13030618376454206 0.16278766214654589 -0.047382176229854571 -0.2114789129906027 -0.071205107196518874 0.011454020863515419 0.13513880552160407 0.022153292358908269 0.14990128870684333 -0.20178562051996815 -0.0888251494784148 0.39447259768209558 0.062282951736947256 0.37202435742436474 0.050733022078625914
leaf_weight=1051 4099 1708 759 1980 859 1357 2586 1027 2158 941 711 583 858 2934 497 2012 444 2265 358 1639 2506 989 1853 1259 267 466 47 703 98 986
leaf_count=1051 4099 1708 759 1980 859 1357 2586 1027 2158 941 711 583 858 2934 497 2012 444 2265 358 1639 2506 989 1853 1259 267 466 47 703 98 986
internal_value=-1.09102e-10 0.0364601 0.0609739 -0.0549071 -0.0058102 0.0943467 -0.0768334 -0.0535377 0.0261949 0.118574 0.0143567 -0.041471 0.0480711 0.0933248 0.0690742 0.159557 0.0608687 -0.0729975 -0.0896737 -0.0290157 -0.00944361 0.0941071 0.00144434 0.107843 -0.0979918 -0.142114 0.154408 0.101188 0.216199 0.0117807
internal_weight=40000 24038 18286 15962 6093 12193 12124 8025 4410 8003 3838 5752 4190 4952 2252 3051 1858 3316 1683 5172 3533 1847 2436 4193 2853 824 544 1147 1039 2343
internal_count=40000 24038 18286 15962 6093 12193 12124 8025 4410 8003 3838 5752 4190 4952 2252 3051 1858 3316 1683 5172 3533 1847 2436 4193 2853 824 544 1147 1039 2343
is_linear=0
shrinkage=0.05


Tree=13
num_leaves=31
num_cat=0
split_feature=29 51 59 64 152 72 58 102 200 287 80 150 200 215 51 152 102 179 47 47 47 147 69 61 73 41 73 278 69 263
split_gain=28907.7 13673.3 9023.87 8769.55 6395.06 5905.75 4049.3 3743.25 2684.08 2361.58 2261.34 2070.23 1804.32 1793.51 1745 1729.76 1686.22 1597.87 1569.45 1410.57 1313.87 1263.3 1126.71 1119.68 1112.28 993.891 959.917 947.155 935.275 882.876
threshold=0.015000749845057728 0.0040082321502268323 0.00087040179641917359 0.0033879434922710065 1.0000000180025095e-35 0.00085325224790722143 0.0092810848727822321 0.017004251480102543 0.53319332003593456 0.00069447795976884674 0.00099608179880306146 0.0020021040691062812 0.0090049547143280523 0.0018939462024718525 0.065039772540330901 0.028731063939630989 0.0049878121353685865 0.0060003001708537349 0.0080164643004536646 0.0011166949407197537 1.0000000180025095e-35 0.17029277980327609 0.0059943122323602447 0.015019547194242479 0.018998914398252967 0.14601615071296695 0.052044266834855087 0.001120456960052252 0.062037583440542228 0.00099905201932415388
decision_type=2 2 2 2 2 2 2 2 2 2 2 2 2 2 2 2 2 2 2 2 2 2 2 2 2 2 2 2 2 2
left_child=1 2 8 6 9 10 11 20 13 18 -6 19 21 22 24 26 -12 23 27 -2 -5 -4 -1 -8 25 -7 -9 28 -3 -16
right_child=3 4 12 7 5 14 17 15 -10 -11 16 -13 -14 -15 29 -17 -18 -19 -20 -21 -22 -23 -24 -25 -26 -27 -28 -29 -30 -31
leaf_value=0.058091259510124671 -0.054700495698570301 0.082685357555154326 -0.11358955586769853 -0.0088680408940313583 0.16823932798779812 0.068538360346307545 -0.10858028693671989 0.0419313402147449 0.090634088765766313 -0.014144363740263836 0.052863933660069619 0.0070070852162036137 -0.057884939968953886 -0.060489753535284976 0.11382876876146963 0.11037220712027851 0.12862858279689734 -0.045579946865162368 -0.041223362224046836 -0.14904320078591507 -0.070321976970081634 -0.24778148877634623 -0.010107037509298984 -0.16923237910926198 -0.01075673544410919 -0.022655347750252929 -0.056621276332636833 0.0016577757482297752 0.01176031050595662 0.045000665967291298
leaf_weight=1167 3160 2408 972 2242 1835 1440 3557 926 1100 2695 1233 1302 1746 884 1108 779 1816 817 456 453 1421 214 1259 968 1315 377 337 633 576 804
leaf_count=1167 3160 2408 972 2242 1835 1440 3557 926 1100 2695 1233 1302 1746 884 1108 779 1816 817 456 453 1421 214 1259 968 1315 377 337 633 576 804
internal_value=-1.62112e-10 0.0346371 -0.0222295 -0.0521617 0.0596439 0.0851936 -0.0798014 -0.00246848 0.0229688 0.022165 0.124384 -0.0470492 -0.0902119 0.000481812 0.0472466 0.0517762 0.0979897 -0.109936 0.04619 -0.0665292 -0.0327081 -0.137803 0.022699 -0.121555 0.0242685 0.049617 0.015635 0.0572103 0.0689947 0.0848864
internal_weight=40000 24038 7342 15962 16696 9928 10257 5705 4410 6768 4884 4915 2932 3310 5044 2042 3049 5342 4073 3613 3663 1186 2426 4525 3132 1817 1263 3617 2984 1912
internal_count=40000 24038 7342 15962 16696 9928 10257 5705 4410 6768 4884 4915 2932 3310 5044 2042 3049 5342 4073 3613 3663 1186 2426 4525 3132 1817 1263 3617 2984 1912
is_linear=0
shrinkage=0.05


Tree=14
num_leaves=31
num_cat=0
split_feature=200 400 50 51 400 85 400 59 69 402 400 54 73 70 41 215 400 72 400 167 59 402 69 147 64 55 400 47 400 63
split_gain=26420.6 21392.7 10108.8 10008.1 8740.14 6578.78 4779.33 4769.59 3173.51 2750.4 2534.44 2381.37 2375.74 2306.15 2075.3 1861.87 1855.82 1670.25 1553.17 1552.75 1388.36 1366.55 1355.03 1323.15 1272.25 1172.49 1165.39 1135.06 1113.08 1080.81
threshold=0.057026339694857604 212.02750000000003 0.0022598899668082599 0.027014863677322868 287.12300000000005 0.002994918380863965 297.19200000000006 0.0011481192195788028 0.052017828449606902 142.50000000000003 350.07950000000005 0.00098833127412945054 0.055025687441229827 0.00983609212562442 0.12804581224918368 0.041040293872356422 274.23150000000004 0.0079491459764540213 394.02800000000008 0.0018382415291853251 0.0016920522321015599 379.50000000000006 0.22024722397327426 0.088053859770298018 0.0049383016303181657 0.003006174112670124 538.45850000000007 0.0010010520345531406 443.18150000000009 0.021027366630733017
decision_type=2 2 2 2 2 2 2 2 2 2 2 2 2 2 2 2 2 2 2 2 2 2 2 2 2 2 2 2 2 2
left_child=2 9 7 5 14 10 20 13 12 24 25 21 18 16 27 26 -1 -7 -6 23 -5 -8 28 -9 -2 -3 -12 -4 -13 -10
right_child=1 3 4 6 8 17 11 19 29 -11 15 22 -14 -15 -16 -17 -18 -19 -20 -21 -22 -23 -24 -25 -26 -27 -28 -29 -30 -31
leaf_value=-0.087071896239180796 -0.10407169587880008 0.080117604873903292 -0.0070328197661717363 0.090134320568425394 0.071563583684922022 0.016972297335348212 0.18228436207763543 -0.122918309853264 -0.046154608039800711 -0.001344322227155285 0.13687437454551643 0.12348169524894591 -0.019462861174592422 -0.07986467259158414 -0.10903830221117246 0.034829310526450476 0.020876673385727788 -0.042349851068992077 0.17002263070273702 -0.073799591709758555 0.027040497549936034 0.3703904104924628 0.041660841896381993 -0.21443991851484545 -0.044556889672006265 0.0083461944492374315 0.3057480725991939 -0.078105852505854736 0.26856803608792168 0.031710861465310096
leaf_weight=534 1806 1031 1492 2003 1853 2442 1200 2867 1058 2002 1163 2371 588 2198 1485 465 1565 2308 511 1469 1544 105 503 458 1786 1270 112 901 140 770
leaf_count=534 1806 1031 1492 2003 1853 2442 1200 2867 1058 2002 1163 2371 588 2198 1485 465 1565 2308 511 1469 1544 105 503 458 1786 1270 112 901 140 770
internal_value=-1.30959e-10 0.036293 -0.0454987 0.0647043 -0.00683272 0.0280432 0.105677 -0.082323 0.0384164 -0.0483059 0.0749382 0.140996 0.0704759 -0.0440696 -0.0626066 0.120474 -0.00658618 -0.011852 0.0928464 -0.116611 0.0626697 0.197419 0.116566 -0.135525 -0.07448 0.0405045 0.151709 -0.0337929 0.131571 -0.0133557
internal_weight=40000 22251 17749 16657 8658 8791 7866 9091 4780 5594 4041 4319 2952 4297 3878 1740 2099 4750 2364 4794 3547 1305 3014 3325 3592 2301 1275 2393 2511 1828
internal_count=40000 22251 17749 16657 8658 8791 7866 9091 4780 5594 4041 4319 2952 4297 3878 1740 2099 4750 2364 4794 3547 1305 3014 3325 3592 2301 1275 2393 2511 1828
is_linear=0
shrinkage=0.05


Tree=15
num_leaves=31
num_cat=0
split_feature=63 29 58 178 402 47 402 285 104 47 106 105 41 402 147 402 200 51 401 200 73 200 402 148 80 166 402 215 279 41
split_gain=24452.1 12708.4 11130.5 5832.27 4704.33 4672.44 4283.35 3068.79 2664.1 2548.13 2506.24 2162.55 1969.36 1893.51 1751.96 1646.84 1493.64 1453.46 1438.86 1394.72 1336.74 1332.48 1292.03 1238.41 1238.35 1233.89 1191.85 1151.98 1014.2 1001.74
threshold=0.0040028702933341273 0.0029112143674865369 0.0039113494567573079 0.0039880399126559505 233.50000000000003 0.0016000040923245253 231.50000000000003 0.00084465483087115001 0.0024645726662129168 0.0034158863127231602 0.0047355990391224631 0.99854984879493724 0.1340356841683388 75.500000000000014 0.22287222743034366 207.50000000000003 0.022007388994097713 0.0019011475378647449 137.50000000000003 0.011970749590545894 0.27799695730209356 0.0040042081382125625 103.50000000000001 0.0018656976171769204 0.0010010520345531406 1.0000000180025095e-35 491.50000000000006 0.00086506226216442894 0.0016778948483988645 0.15209455043077472
decision_type=2 2 2 2 2 2 2 2 2 2 2 2 2 2 2 2 2 2 2 2 2 2 2 2 2 2 2 2 2 2
left_child=2 6 4 5 8 12 7 13 11 15 14 21 -3 -2 22 -5 -8 -7 -9 -6 -10 -1 -4 26 -18 28 -21 -23 -15 -19
right_child=1 3 10 9 19 17 16 18 20 -11 -12 -13 -14 25 -16 -17 24 29 -20 23 -22 27 -24 -25 -26 -27 -28 -29 -30 -31
leaf_value=-0.083778490820816537 -0.004902793495936494 0.018723659374726143 -0.11268462557053008 0.043595236524604113 -0.0053470567697225966 -0.18321863937127436 0.045988531632208701 -0.0067929666285240333 0.037584204020639715 -0.0069838992022123727 -0.031454815250113004 0.20698931421543107 -0.048254096125525746 0.078179111755637687 -0.21310789196768265 0.1287758567293486 0.19076313457139307 -0.048350806907085472 0.058117899917933216 0.12766931011355623 -0.14165698715993627 0.0012400401274406134 -0.069536275833374586 0.028332530102645387 0.11258026685960261 0.11292019602418729 0.36042453055580459 -0.063093072254304147 -0.001400671467915165 -0.12410647267357311
leaf_weight=1533 631 3326 3491 1441 344 348 465 2244 1913 1449 1867 86 1638 2169 308 936 867 1367 1378 660 110 1645 3449 316 1218 2403 60 1206 491 641
leaf_count=1533 631 3326 3491 1441 344 348 465 2244 1913 1449 1867 86 1638 2169 308 936 867 1367 1378 660 110 1645 3449 316 1218 2403 60 1206 491 641
internal_value=-1.12984e-10 0.0335886 -0.0454992 -0.0047495 -0.00195154 -0.030898 0.0696004 0.0538836 -0.0197698 0.0452784 -0.0831131 -0.0413158 -0.00337738 0.0767714 -0.0964197 0.0771371 0.127019 -0.0888828 0.0179026 0.0818847 0.027838 -0.0461868 -0.091241 0.11085 0.145091 0.0869504 0.147066 -0.0259735 0.0634898 -0.0725338
internal_weight=40000 23012 16988 11146 7873 7320 11866 9316 6493 3826 9115 4470 4964 5694 7248 2377 2550 2356 3622 1380 2023 4384 6940 1036 2085 5063 720 2851 2660 2008
internal_count=40000 23012 16988 11146 7873 7320 11866 9316 6493 3826 9115 4470 4964 5694 7248 2377 2550 2356 3622 1380 2023 4384 6940 1036 2085 5063 720 2851 2660 2008
is_linear=0
shrinkage=0.05


Tree=16
num_leaves=31
num_cat=0
split_feature=400 51 58 72 64 200 200 200 69 400 51 215 72 43 79 69 400 400 400 152 400 101 400 119 400 73 400 147 152 55
split_gain=22627.9 24401.8 10417.8 6754.86 4991.24 4435.69 3081.4 2771.98 2505.38 2691.19 2194.87 2186.44 1957.84 1929.36 1927.62 1830.93 1692.37 1297.03 1288.39 1254.5 1245.22 1108.31 1045.15 1031.76 1007.1 990.433 985.33 943.245 915.35 897.084
threshold=221.04850000000002 0.01001051999628544 0.0016877649468369784 0.0040002001915127048 0.0060078189708292493 0.68728435039520275 0.50002500414848339 0.039034796878695495 0.035004667937755592 297.19200000000006 0.06801700592041017 0.0075815056916326293 0.0050044236704707154 0.016000800766050819 0.020795010030269626 0.0050044236704707154 338.18250000000006 538.45850000000007 453.98450000000008 0.0062926078680902728 171.04600000000002 0.017998329363763336 395.86550000000005 0.0029882453382015233 325.98100000000005 0.0032180229900404815 382.31600000000009 0.10513683035969736 1.0000000180025095e-35 0.15206393599510196
decision_type=2 2 2 2 2 2 2 2 2 2 2 2 2 2 2 2 2 2 2 2 2 2 2 2 2 2 2 2 2 2
left_child=4 2 6 5 13 8 11 12 9 -3 16 15 -4 -1 18 24 29 -8 -7 -10 -6 -9 -17 -20 -2 -13 -11 -14 -24 -5
right_child=1 3 7 10 20 14 17 21 19 26 -12 25 27 -15 -16 22 -18 -19 23 -21 -22 -23 28 -25 -26 -27 -28 -29 -30 -31
leaf_value=-0.045664507644329853 0.023677005865429097 0.049083953413787046 -0.047600454609094726 -0.011808495382254479 -0.061248640257729116 0.17905640790153876 0.083481314237140614 -0.0067855797026656305 -0.0033002369601589998 0.10873956853302531 0.06343651369761473 -0.023159959381928885 -0.096714407567732308 -0.11167006010409218 0.10565593702967135 -0.031588276689084559 0.041969125813433761 0.27943303270654368 0.58295473555723831 0.071256896775525685 -0.0054290981989423993 -0.069410142034396355 0.0027014410000906798 0.23608556743271933 0.10208429276650691 -0.13756949013069283 0.18000590236536843 -0.17860578371802482 0.12225936976765824 -0.089373470877697023
leaf_weight=1491 777 2007 2455 1600 1510 1171 1173 2630 1298 2043 2079 521 2470 4300 1267 1351 1350 91 36 998 2953 966 473 53 866 297 636 410 242 486
leaf_count=1491 777 2007 2455 1600 1510 1171 1173 2630 1298 2043 2079 521 2470 4300 1267 1351 1350 91 36 998 2953 966 473 53 866 297 636 410 242 486
internal_value=-1.09283e-10 0.0220798 -0.0236687 0.0669086 -0.0640516 0.0924409 0.0285647 -0.0575376 0.0718964 0.0928618 0.0228855 0.00929232 -0.0804071 -0.0946757 0.149205 0.0256109 -0.0016504 0.0975886 0.192995 0.0291074 -0.0243149 -0.0236085 -0.00571695 0.376392 0.0650043 -0.0646999 0.125658 -0.108373 0.0431672 -0.0298797
internal_weight=40000 29746 14722 15024 10254 9509 5791 8931 6982 4686 5515 4527 5335 5791 2527 3709 3436 1264 1260 2296 4463 3596 2066 89 1643 818 2679 2880 715 2086
internal_count=40000 29746 14722 15024 10254 9509 5791 8931 6982 4686 5515 4527 5335 5791 2527 3709 3436 1264 1260 2296 4463 3596 2066 89 1643 818 2679 2880 715 2086
is_linear=0
shrinkage=0.05


Tree=17
num_leaves=31
num_cat=0
split_feature=29 59 76 178 51 402 402 77 152 271 50 115 63 49 152 74 105 178 49 27 85 167 401 123 71 299 401 42 103 402
split_gain=21088.7 10867 7404.21 6408.74 4907.45 3646.95 3634.87 3202.82 3055.55 2879.58 2467.91 2290.5 2013.38 1581.13 1439.26 1435.06 1258.35 1199.38 1155.39 1079.69 995.035 980.937 965.035 960.689 953.444 907.441 834.322 809.027 740.521 739.934
threshold=0.015000749845057728 0.014997866470366718 0.0090049547143280523 0.0039880399126559505 0.0030039094854146246 279.50000000000006 88.500000000000014 0.003006174112670124 0.011002613231539728 0.0016313256928697231 0.0019961160141974692 0.03301541134715081 0.031005426310002807 0.0028860088204965 0.028731063939630989 0.0030046636238694195 0.69536083936691295 0.0059317857958376416 0.0010000500478781762 0.026888293214142326 0.0056899120099842557 1.0000000180025095e-35 182.50000000000003 0.025016894564032558 0.0010010520345531406 0.0029882453382015233 278.50000000000006 0.0089968531392514723 0.047017201781272895 85.500000000000014
decision_type=2 2 2 2 2 2 2 2 2 2 2 2 2 2 2 2 2 2 2 2 2 2 2 2 2 2 2 2 2 2
left_child=1 2 5 6 17 7 -2 20 13 16 15 26 22 25 -13 -8 21 28 -10 -12 29 -9 -6 -16 -7 -4 27 -5 -3 -1
right_child=3 4 8 11 12 24 10 9 18 -11 19 14 -14 -15 23 -17 -18 -19 -20 -21 -22 -23 -24 -25 -26 -27 -28 -29 -30 -31
leaf_value=-0.071252101145068358 -0.10068455426283117 -0.10126029527114165 0.096198970435184494 0.031590308285202186 -0.056269993153445087 0.15293879457260523 -0.050337102789613744 0.027620891004153155 0.14917193239091672 -0.018820879330730043 0.011503334673682371 0.0057753025675610775 0.039008799796966087 0.022776163090823729 0.15500083269805076 -0.11541639407156146 0.17472597210325372 -0.012073794819477854 0.084006891728407057 -0.039441170372826906 -0.073246720882480174 0.079542791522946341 0.015660207452882321 0.050677220708631135 0.048566807526498085 0.040794819260360181 0.078477295110198242 -0.047228657682968966 -0.19216315079998375 0.0013841775907486307
leaf_weight=432 4099 1190 2560 409 1417 581 2564 2159 1812 1891 1904 757 1834 1797 416 1265 212 324 1089 2292 946 1572 695 470 351 1039 190 1596 276 1861
leaf_count=432 4099 1190 2560 409 1417 581 2564 2159 1812 1891 1904 757 1834 1797 416 1265 212 324 1089 2292 946 1572 695 470 351 1039 190 1596 276 1861
internal_value=-1.00959e-10 0.0295842 0.0484046 -0.0445523 -0.0304668 0.0194437 -0.0623778 0.00976855 0.0833273 0.0319037 -0.0428116 0.0117574 0.000682058 0.0610793 0.0564033 -0.0718376 0.0562305 -0.0991333 0.12471 -0.0163243 -0.0301008 0.0494974 -0.0325998 0.0996599 0.113631 0.0802043 -0.021661 -0.0311504 -0.118374 -0.0123005
internal_weight=40000 24038 18302 15962 5736 10005 12124 9073 8297 5834 8025 3838 3946 5396 1643 3829 3943 1790 2901 4196 3239 3731 2112 886 932 3599 2195 2005 1466 2293
internal_count=40000 24038 18302 15962 5736 10005 12124 9073 8297 5834 8025 3838 3946 5396 1643 3829 3943 1790 2901 4196 3239 3731 2112 886 932 3599 2195 2005 1466 2293
is_linear=0
shrinkage=0.05


Tree=18
num_leaves=31
num_cat=0
split_feature=200 402 271 50 402 63 59 76 47 27 47 47 215 315 73 67 63 57 51 29 402 43 41 401 28 118 77 167 72 166
split_gain=19931.4 12000.6 8356.65 5875.35 4648.12 4591.18 3582.24 3282.29 3139.6 1863.27 1827.91 1760.94 1736.54 1687.29 1639.71 1560.28 1466.41 1465.7 1410.61 1322.67 1292.11 1207.85 1120.84 933.226 922.471 907.931 862.121 856.162 802.343 797.88
threshold=0.020026062615215782 207.50000000000003 0.0019961160141974692 0.0019961160141974692 88.500000000000014 0.0023175468668341641 0.0015444024465978148 0.0044469162821769723 0.00099706789478659652 0.024839579127728943 0.0070091220550239095 0.001182732521556318 0.00086506226216442894 0.00077942750067450117 0.041006781160831458 0.0010010520345531406 0.019922530278563503 0.0069968535099178561 0.041049994528293617 0.035001751035451896 347.50000000000006 0.018994620069861416 0.1130223758518696 166.50000000000003 0.015649490989744667 0.00099608179880306146 0.0059943122323602447 1.0000000180025095e-35 0.0016694537480361762 0.00081847092951647948
decision_type=2 2 2 2 2 2 2 2 2 2 2 2 2 2 2 2 2 2 2 2 2 2 2 2 2 2 2 2 2 2
left_child=3 2 5 8 25 14 15 22 12 13 23 19 17 27 21 20 -17 -1 -8 -6 -3 -2 -4 -9 -22 -5 -23 -7 -25 -10
right_child=1 6 7 4 11 9 18 10 29 -11 -12 -13 -14 -15 -16 16 -18 -19 -20 -21 24 26 -24 28 -26 -27 -28 -29 -30 -31
leaf_value=0.0085296024317083243 0.04659056935724247 0.12984311707822843 -0.03451973222398879 -0.10969120144725131 0.046671531651318023 0.069989974424108439 0.0060556841804865688 0.0026398406897972996 -0.16144104639663259 -0.0014814745400135079 -0.053877540407958016 -0.031222902845438105 -0.11460869577293387 0.034372764716493476 -0.089903413232726367 0.026843098637212195 0.11941926733277919 -0.062908808036178376 0.076786171835139555 -0.024414386467364015 0.21524504267567038 -0.057336847395893897 -0.085173216682063541 0.120329543072622 0.54926521866159006 -0.043378119064583845 0.01629139568723206 0.11759006790409172 0.025593289168482958 -0.085323000430092527
leaf_weight=952 1090 1420 2297 1160 2604 1947 1351 3007 1224 955 1202 1883 1181 1809 534 671 1180 2921 1474 874 342 822 2082 344 22 930 770 1835 638 479
leaf_count=952 1090 1420 2297 1160 2604 1947 1351 3007 1224 955 1202 1883 1181 1809 534 671 1180 2921 1474 874 342 822 2082 344 22 930 770 1835 638 479
internal_value=-1.17167e-10 0.0261959 0.0064804 -0.0475538 -0.0169349 0.0390291 0.0851959 -0.0267214 -0.0813176 0.0630635 0.0001732 0.00772277 -0.0615333 0.0740885 -0.00989155 0.11802 0.0858598 -0.0453489 0.0429607 0.0288081 0.151387 0.00603923 -0.058603 0.0164602 0.235433 -0.0801835 -0.0217252 0.0930852 0.0587799 -0.140031
internal_weight=40000 25792 19332 14208 7451 9762 6460 9570 6757 6546 5191 5361 5054 5591 3216 3635 1851 3873 2825 3478 1784 2682 4379 3989 364 2090 1592 3782 982 1703
internal_count=40000 25792 19332 14208 7451 9762 6460 9570 6757 6546 5191 5361 5054 5591 3216 3635 1851 3873 2825 3478 1784 2682 4379 3989 364 2090 1592 3782 982 1703
is_linear=0
shrinkage=0.05


Tree=19
num_leaves=31
num_cat=0
split_feature=200 63 402 29 47 72 215 105 181 67 61 69 51 166 402 102 167 215 63 81 105 402 28 29 179 147 181 215 401 77
split_gain=18347 10772.6 6749.16 6560.56 4444.8 4337.05 3300.38 2682.12 2175.86 2048.21 1953.51 1575.64 1449.47 1396.41 1336.82 1297.58 1254.21 1247.36 1237.92 1025.94 1014.92 993.579 1152.83 858.137 839.613 999.992 762.892 748.373 742.747 740.58
threshold=0.30109420418739324 0.0023175468668341641 241.50000000000003 0.030001499690115455 0.0039761590305715808 0.0059988009743392476 0.0029994004871696238 0.0050044236704707154 1.0000000180025095e-35 0.0010010520345531406 0.056092688813805587 0.059030510485172279 0.0040082321502268323 1.0000000180025095e-35 147.50000000000003 0.0014524335856549444 1.0000000180025095e-35 0.0018939462024718525 0.020021039992570881 0.0014892041217535736 0.42933626472949987 347.50000000000006 0.010022821370512249 0.0009980580070987346 0.0050002499483525762 0.088053859770298018 0.010000499896705152 0.00086506226216442894 137.50000000000003 0.01599166821688414
decision_type=2 2 2 2 2 2 2 2 2 2 2 2 2 2 2 2 2 2 2 2 2 2 2 2 2 2 2 2 2 2
left_child=1 5 6 4 8 7 11 14 17 21 15 16 -6 -8 -1 -5 23 -3 -11 -15 27 -4 -23 -2 25 -7 -17 -9 -14 -13
right_child=2 3 9 10 12 24 13 20 -10 18 -12 29 28 19 -16 26 -18 -19 -20 -21 -22 22 -24 -25 -26 -27 -28 -29 -30 -31
leaf_value=-0.077921264636339901 0.076196723526748375 0.038626177724342674 0.13078474168374085 -0.065550646585234379 -0.10297588402067732 -0.097834755470176685 -0.026861392334732365 0.019863994120594888 0.077877001081098907 0.022369993744411176 -0.1279913758626576 -0.045770877406461116 -0.044764997713915039 0.083125444830157741 -0.022349787815969573 -0.025413077242547724 0.11276935566447809 -0.020093651085688873 0.10353985549194598 0.0079869801494082144 0.10415797343904616 0.20246323092255697 0.53670594843902764 0.00884557258644539 -0.04897638171653132 -0.18086535161877476 0.041413654476633012 -0.044403729208840753 0.011889875651483195 0.037333255528145669
leaf_weight=2836 1231 3581 948 1738 522 3541 2555 1326 3040 680 632 413 972 592 1750 1612 1345 1210 1519 1953 253 328 28 768 761 404 581 688 1429 764
leaf_count=2836 1231 3581 948 1738 522 3541 2555 1326 3040 680 632 413 972 592 1750 1612 1345 1210 1519 1953 253 328 28 768 761 404 581 688 1429 764
internal_value=-1.05479e-10 -0.0236632 0.0484587 0.00383604 0.0251515 -0.0601028 0.0268229 -0.0347227 0.0447903 0.107881 -0.0463998 0.0579265 -0.027463 -0.000749416 -0.0567154 -0.033282 0.0754385 0.0237961 0.0784396 0.0254652 0.00976703 0.15753 0.228752 0.0503209 -0.0970619 -0.106338 -0.00770841 -0.00209042 -0.0110458 0.00817267
internal_weight=40000 26876 13124 15317 10754 11559 9621 6853 7831 3503 4563 4521 2923 5100 4586 3931 3344 4791 2199 2545 2267 1304 356 1999 4706 3945 2193 2014 2401 1177
internal_count=40000 26876 13124 15317 10754 11559 9621 6853 7831 3503 4563 4521 2923 5100 4586 3931 3344 4791 2199 2545 2267 1304 356 1999 4706 3945 2193 2014 2401 1177
is_linear=0
shrinkage=0.05


Tree=20
num_leaves=31
num_cat=0
split_feature=400 200 72 402 63 58 63 64 63 200 400 70 52 400 215 400 109 402 63 77 47 400 75 47 400 77 91 31 104 88
split_gain=17755.2 15064.5 7789.1 4957.09 4701.72 4217.81 2857.15 2409.63 2347.6 1949.42 1771.37 1694.6 1559.95 1452.11 1383.3 1604.33 1346.43 1290.39 1182.88 1163.39 1112.14 1051.19 1033.65 994.68 972.802 915.75 881.61 880.859 823.925 809.748
threshold=258.59850000000006 0.020026062615215782 0.00085325224790722143 103.50000000000001 0.015846072696149353 0.0040028702933341273 0.0056497247423976668 0.00097443332197144638 0.0014114389196038248 0.032007697969675071 347.28900000000004 0.00050331783131696295 0.020995803177356723 325.98100000000005 0.016963540576398376 423.30500000000006 0.0020001000957563524 185.50000000000003 0.0010010520345531406 0.085035372525453581 0.001182732521556318 516.7850000000002 0.017023577354848388 0.00099706789478659652 392.05400000000003 0.081010378897190108 0.046008436009287841 0.0018921493319794538 0.02796116936951876 0.0020001000957563524
decision_type=2 2 2 2 2 2 2 2 2 2 2 2 2 2 2 2 2 2 2 2 2 2 2 2 2 2 2 2 2 2
left_child=3 5 6 12 18 8 11 22 19 -5 23 14 -1 27 15 -3 21 -11 26 28 -10 -12 -7 29 -20 -17 -4 -6 -2 -8
right_child=1 2 4 9 13 7 10 -9 20 17 16 -13 -14 -15 -16 25 -18 -19 24 -21 -22 -23 -24 -25 -26 -27 -28 -29 -30 -31
leaf_value=-0.10055174052399976 -0.056616006363608487 0.083861794049247984 -0.062596702506428056 -0.067675438029208113 0.053354610587787593 -0.066708943587425157 0.071521305704808955 -0.014548417291654637 0.054041382467707212 -0.021634898521997764 0.18663333728584613 0.013657133726745683 -0.04089530966042626 0.09370409284966999 0.016678339571406305 0.17292294223807037 0.11312671757882375 0.032352841866047151 -0.015649288332921164 0.09470293347272063 -0.018400778050933087 0.4534740149974823 -0.13156208173433587 0.027391237674841164 0.052358023505726395 0.40048758188883471 0.021200727748189076 -0.017759451651588896 0.032141989373896299 0.12520095754146379
leaf_weight=3988 1670 1043 1608 1753 1336 2273 1355 2061 2229 4191 688 1673 1511 1647 550 197 1092 1504 1682 167 695 39 842 579 765 57 390 646 310 1459
leaf_count=3988 1670 1043 1608 1753 1336 2273 1355 2061 2229 4191 688 1673 1511 1647 550 197 1092 1504 1682 167 695 39 842 579 765 57 390 646 310 1459
internal_value=-9.24824e-11 0.0230452 0.0521796 -0.0481533 0.0167803 -0.0247378 0.0849113 -0.0564894 0.00767115 -0.0215693 0.108416 0.0501088 -0.0841595 0.0590079 0.0831264 0.111304 0.148226 -0.00737721 -0.0176953 -0.0320304 0.0368227 0.200948 -0.0842391 0.0870731 0.00561168 0.223991 -0.0462398 0.0301762 -0.0427196 0.0993531
internal_weight=40000 27053 16806 12947 8074 10247 8732 5176 5071 7448 5212 3520 5499 3629 1847 1297 1819 5695 4445 2147 2924 727 3115 3393 2447 254 1998 1982 1980 2814
internal_count=40000 27053 16806 12947 8074 10247 8732 5176 5071 7448 5212 3520 5499 3629 1847 1297 1819 5695 4445 2147 2924 727 3115 3393 2447 254 1998 1982 1980 2814
is_linear=0
shrinkage=0.05


Tree=21
num_leaves=31
num_cat=0
split_feature=400 200 72 50 50 402 56 47 63 31 400 73 109 57 402 400 400 200 400 52 56 73 213 400 27 152 107 182 50 400
split_gain=16166.1 15090 7566.4 5333.28 3590.25 3428.79 3407.14 2496.68 2304.91 2206.17 1970.14 1833.81 1925.68 1536.36 1499.01 1381.17 1321.94 1158.43 1120.93 1088.03 1032.3 976.225 885.552 848.516 839.83 823.494 798.404 751.25 746.68 724.972
threshold=216.16050000000004 0.020026062615215782 0.0040002001915127048 0.0019961160141974692 0.0070132305845618257 103.50000000000001 0.0029282639734447007 0.0028228666633367543 0.011015255935490133 0.0029971561161801223 302.06200000000007 0.13797241449356082 0.0037244076374918227 0.014953715726733209 508.50000000000006 335.16600000000005 319.19650000000007 0.45335710048675543 299.14750000000009 0.013899622019380333 0.021925246343016628 0.27799695730209356 0.00080856014392338704 351.14750000000009 0.014590936712920667 0.0044004453811794528 0.0056148248258978137 0.0016273490036837759 0.0050002499483525762 339.15600000000006
decision_type=2 2 2 2 2 2 2 2 2 2 2 2 2 2 2 2 2 2 2 2 2 2 2 2 2 2 2 2 2 2
left_child=5 3 6 7 24 19 10 13 29 15 -3 12 14 21 25 -5 -10 28 -6 -1 -17 23 26 -2 -4 -12 -15 -9 -7 -8
right_child=1 2 4 9 18 17 8 27 16 -11 11 -13 -14 22 -16 20 -18 -19 -20 -21 -22 -23 -24 -25 -26 -27 -28 -29 -30 -31
leaf_value=-0.1060792531480185 -0.024295086614947049 0.061523989146155325 -0.014035107319986195 -0.0019964490759334231 0.0079199323354132416 -0.089234449379642075 -0.01655094736029528 -0.15444859268643843 0.043054415230219925 -0.039238942265045672 0.12761452348129465 -0.033904112118634054 0.079356975594920845 -0.071176328858649482 0.4657401164372762 0.087316686876904998 0.10768441311092387 -0.0021768710888212753 0.067149180361763983 -0.055479145536670806 0.012524100832395527 -0.14954947163350882 -0.15683386455987539 0.061039426841329861 -0.065313019694883831 0.19340670938932891 -0.010303398169253471 -0.061856056183576584 -0.03249136347706371 0.032796203726693222
leaf_weight=2926 664 2391 2524 1967 1399 845 1269 812 1700 1818 1244 182 1218 2283 39 1160 1480 2335 1862 1668 766 100 239 519 1168 770 705 300 1847 1800
leaf_count=2926 664 2391 2524 1967 1399 845 1269 812 1700 1818 1244 182 1218 2283 39 1160 1480 2335 1862 1668 766 100 239 519 1168 770 705 300 1847 1800
internal_value=-8.18227e-11 0.0178882 0.0450712 -0.0277951 0.0035095 -0.0564832 0.0689676 -0.0623656 0.0433022 0.00623663 0.0964116 0.120569 0.129164 -0.0458204 0.158714 0.0274734 0.0731338 -0.0279486 0.0417393 -0.0877073 0.0575705 0.000461869 -0.0642215 0.0131425 -0.0302574 0.152768 -0.0568137 -0.129469 -0.0503026 0.0123917
internal_weight=40000 30379 19046 11333 6953 9621 12093 5622 6249 5711 5844 3453 3271 4510 2053 3893 3180 5027 3261 4594 1926 1283 3227 1183 3692 2014 2988 1112 2692 3069
internal_count=40000 30379 19046 11333 6953 9621 12093 5622 6249 5711 5844 3453 3271 4510 2053 3893 3180 5027 3261 4594 1926 1283 3227 1183 3692 2014 2988 1112 2692 3069
is_linear=0
shrinkage=0.05


Tree=22
num_leaves=31
num_cat=0
split_feature=400 51 85 51 55 47 400 400 73 43 400 50 75 41 77 400 63 200 200 152 47 119 400 47 55 77 73 147 41 51
split_gain=14737.8 14712.9 6711.62 5712.73 4614.66 3608.58 2951.09 2451.18 2307.97 2149.41 1865.46 1797.35 1459.49 1403.97 1379.69 1483.34 1347.17 1274.82 1116.15 1006.76 984.502 967.76 1016.32 965.089 874.955 871.606 866.634 851.681 846.813 820.977
threshold=277.99600000000004 0.01001051999628544 0.0028429296799004082 0.02397795952856541 0.11910859867930414 0.00099706789478659652 186.04700000000003 380.07900000000006 0.0032180229900404815 0.017993706278502945 350.07950000000005 1.0000000180025095e-35 0.013011066708713772 0.19704999774694446 0.0020021040691062812 516.7850000000002 0.044005233794450767 0.46918602287769323 1.0000000180025095e-35 0.0080196927301585692 0.0051701862830668696 1.0000000180025095e-35 500.11000000000007 0.0020001000957563524 0.0020041160751134162 0.0069907514844089755 0.063015758991241469 0.025023611262440685 0.0089876297861337679 0.044005233794450767
decision_type=2 2 2 2 2 2 2 2 2 2 2 2 2 2 2 2 2 2 2 2 2 2 2 2 2 2 2 2 2 2
left_child=3 2 8 9 5 7 -5 18 10 20 28 12 25 23 -12 24 -6 -8 -3 -14 -1 22 -9 -13 -16 -4 -7 -10 -2 -20
right_child=1 4 11 6 16 26 17 21 27 -11 14 13 19 -15 15 -17 -18 -19 29 -21 -22 -23 -24 -25 -26 -27 -28 -29 -30 -31
leaf_value=-0.014367477039582511 0.064500547538504024 0.016283564888987835 -0.057795267636165416 -0.048711491200008651 -0.01452586871054895 0.06057120602895643 -0.0056212674890655625 0.20740096442238151 0.0037528122983839667 -0.086289911109297388 0.043111636284306219 0.030235234224817727 -0.12808582572120419 -0.076938042051565569 0.19985580770754152 0.35167291844394843 0.06163215281790916 0.044510141249511997 0.073306711803279787 -0.019348744991131955 -0.10721666319740575 0.14618363931682177 0.44651311335188376 -0.03473054138293314 0.086149900436300331 -0.0023612465006594852 0.0057673702846934641 -0.086487035224846701 -0.0088029483651592532 0.12055280005147646
leaf_weight=1932 626 443 2629 2998 1866 2197 3393 251 869 5283 802 1570 1006 632 225 71 843 2025 1615 270 335 867 54 899 682 971 1074 374 1063 2135
leaf_count=1932 626 443 2629 2998 1866 2197 3393 251 869 5283 802 1570 1006 632 225 71 843 2025 1615 270 335 867 54 899 682 971 1074 374 1063 2135
internal_value=-1.11907e-10 0.0247367 -0.0122541 -0.0372368 0.0661097 0.0839699 -0.00890886 0.109207 0.0350596 -0.0688139 0.0560063 -0.0402022 -0.0591294 -0.0104412 0.0917225 0.131585 0.00917336 0.0131156 0.0913389 -0.105077 -0.028088 0.173132 0.249736 0.00658022 0.114357 -0.0428435 0.0425769 -0.023399 0.0183658 0.100205
internal_weight=40000 24034 12689 15966 11345 8636 8416 5365 4712 7550 3469 7977 4876 3101 1780 978 2709 5418 4193 1276 2267 1172 305 2469 907 3600 3271 1243 1689 3750
internal_count=40000 24034 12689 15966 11345 8636 8416 5365 4712 7550 3469 7977 4876 3101 1780 978 2709 5418 4193 1276 2267 1172 305 2469 907 3600 3271 1243 1689 3750
is_linear=0
shrinkage=0.05


Tree=23
num_leaves=31
num_cat=0
split_feature=200 29 63 47 59 73 102 54 77 92 152 263 207 104 63 52 165 214 67 167 401 47 401 401 115 401 313 270 165 313
split_gain=13528.2 7994.42 5760.96 3801.75 3526.49 2969.25 2574.95 2270.63 2036.92 1876.16 1677.75 1501.08 1409.85 1388.57 1274.96 1137.24 1055.52 1001.1 981.163 881.955 838.992 937.229 804.042 789.646 775.962 769.575 693.437 683.88 674.725 659.795
threshold=0.30109420418739324 0.030001499690115455 0.0014114389196038248 0.0049059723969548949 0.0099108126014471071 0.15221071988344195 0.0035523991100490098 0.00098833127412945054 0.080059248954057707 0.0043509812094271192 1.0000000180025095e-35 0.00099905201932415388 0.0019175613997504117 0.0039975370746105918 0.049012254923582084 0.0020021040691062812 0.0082742432132363337 1.0000000180025095e-35 0.081165537238121047 0.011005137115716936 242.50000000000003 0.0010010520345531406 104.50000000000001 210.50000000000003 0.0063775614835321912 161.50000000000003 0.013015307951718571 0.0045078913681209096 0.0029197143157944088 0.0039922320283949384
decision_type=2 2 2 2 2 2 2 2 2 2 2 2 2 2 2 2 2 2 2 2 2 2 2 2 2 2 2 2 2 2
left_child=1 2 5 10 6 8 7 12 13 19 17 16 26 -1 23 22 27 -4 24 -3 21 -11 -5 -6 -12 -13 -2 -8 -7 -18
right_child=4 9 3 15 14 28 11 -9 -10 20 18 25 -14 -15 -16 -17 29 -19 -20 -21 -22 -23 -24 -25 -26 -27 -28 -29 -30 -31
leaf_value=-0.049663067075365434 0.077609047365006054 -0.083841344307878693 0.025334877522107713 -0.14889082268209142 -0.038880810221016873 -0.15077897207009869 0.10406793172643361 -0.00097645031141631918 0.064458411508961255 -0.019205315549410785 0.043933655471667513 0.0096854106981866771 0.47688936960129508 0.015210341543105368 0.040076360551526434 -0.0090658380552715058 0.16896590679227994 -0.03881329601088343 -0.019044431642503884 -0.026134508935517015 0.039462346658346401 -0.079777109271200408 -0.044841929460302576 0.021933801389046104 0.087344068152186649 0.081875526737388016 0.00025435185802263628 0.041972660229388753 -0.056506887896124416 0.095163268103425361
leaf_weight=3807 1808 4923 3373 272 1710 639 1170 2455 568 2048 2119 794 21 1053 1377 2008 761 742 379 765 395 928 585 776 2002 690 345 714 270 503
leaf_count=3807 1808 4923 3373 272 1710 639 1170 2455 568 2048 2119 794 21 1053 1377 2008 761 742 379 765 395 928 585 776 2002 690 345 714 270 503
internal_value=-7.69937e-11 -0.0203194 -0.000874592 0.0202492 0.0416111 -0.039142 0.0583506 0.0319772 -0.025136 -0.058563 0.0368422 0.0847069 0.0691902 -0.0356072 0.00148061 -0.0296457 0.10425 0.0137679 0.0579423 -0.0760801 -0.0290056 -0.0380933 -0.0778656 -0.0198976 0.0650226 0.0432509 0.0652136 0.080535 -0.122777 0.139597
internal_weight=40000 26876 17817 11480 13124 6337 9261 4629 5428 9059 8615 4632 2174 4860 3863 2865 3148 4115 4500 5688 3371 2976 857 2486 4121 1484 2153 1884 909 1264
internal_count=40000 26876 17817 11480 13124 6337 9261 4629 5428 9059 8615 4632 2174 4860 3863 2865 3148 4115 4500 5688 3371 2976 857 2486 4121 1484 2153 1884 909 1264
is_linear=0
shrinkage=0.05


Tree=24
num_leaves=31
num_cat=0
split_feature=400 51 85 51 55 400 47 73 50 400 400 43 41 77 400 75 79 43 47 77 119 200 91 47 51 166 41 79 27 47
split_gain=12973.5 12414.8 6472.83 4785.65 3304.43 2585.19 2563.97 2140.85 2045.92 2001.01 1965.93 1809.54 1493.52 1313.14 1596.66 1233.48 1180.29 985.936 953.247 923.068 886.684 880.415 841.786 827.714 812.188 811.286 761.216 749.328 721.981 721.27
threshold=278.23050000000006 0.017013902775943283 0.002994918380863965 0.02397795952856541 0.19904156774282458 186.04700000000003 0.00099706789478659652 0.008408411871641876 1.0000000180025095e-35 380.07900000000006 353.34750000000003 0.017993706278502945 0.19704999774694446 0.0020021040691062812 516.7850000000002 0.01499393815174699 0.0140007003210485 0.0040136228781193503 0.0087108276784420031 0.078135348856449141 1.0000000180025095e-35 1.0000000180025095e-35 0.0070009334012866029 0.0051701862830668696 0.16210600733757022 0.0031421857420355086 0.004842643393203617 0.010000499896705152 1.0000000180025095e-35 0.0052747263107448825
decision_type=2 2 2 2 2 2 2 2 2 2 2 2 2 2 2 2 2 2 2 2 2 2 2 2 2 2 2 2 2 2
left_child=3 2 7 11 6 -5 9 10 15 21 17 23 18 -12 26 22 -7 -2 -10 -6 -11 -3 -4 -1 -18 -17 -15 -23 -8 -13
right_child=1 4 8 5 19 16 28 -9 12 20 13 29 -14 14 -16 25 24 -19 -20 -21 -22 27 -24 -25 -26 -27 -28 -29 -30 -31
leaf_value=-0.013767676166854915 0.063589385812227991 0.015060133847993061 -0.053903341630119034 -0.046129301016651088 -0.052314225858707736 0.040900728758611754 0.067349947765984408 -0.023750283088460427 0.025777132320412871 0.24205785358400816 0.040824599768202512 -0.068937183170759267 -0.063379128536081394 0.1787289744793662 0.32638300982921309 -0.12179158347889814 -0.022234051684001624 -0.0050536529786755074 -0.039557198766683198 0.028795112501069239 0.13717177332115649 0.12470401565371503 -0.0016366176169397143 -0.098708130829202545 0.032143252017825336 -0.036371010552174274 0.082797408144708956 0.076601212994725873 0.017867740936715379 -0.11188031626449138
leaf_weight=1959 847 390 2604 2998 526 2114 1576 1126 2428 269 829 4060 866 274 89 891 2412 1368 725 1053 803 1280 1094 336 960 404 843 2203 1385 1288
leaf_count=1959 847 390 2604 2998 526 2114 1576 1126 2428 269 829 4060 866 274 89 891 2412 1368 725 1053 803 1280 1094 336 960 404 843 2203 1385 1288
internal_value=-8.08046e-11 0.0234041 -0.0058714 -0.0346454 0.0678127 -0.00879332 0.0810018 0.0375494 -0.0317736 0.103035 0.0537902 -0.0633421 -0.00521981 0.0892686 0.122569 -0.0531474 0.0116101 0.0211949 0.0107542 0.00177579 0.163491 0.0863018 -0.038441 -0.0262034 -0.00675297 -0.095143 0.106329 0.094279 0.0442048 -0.0792795
internal_weight=40000 23873 14388 16127 9485 8484 7906 5376 9012 4945 4250 7643 4019 2035 1206 4993 5486 2215 3153 1579 1072 3873 3698 2295 3372 1295 1117 3483 2961 5348
internal_count=40000 23873 14388 16127 9485 8484 7906 5376 9012 4945 4250 7643 4019 2035 1206 4993 5486 2215 3153 1579 1072 3873 3698 2295 3372 1295 1117 3483 2961 5348
is_linear=0
shrinkage=0.05


Tree=25
num_leaves=31
num_cat=0
split_feature=402 29 400 51 400 73 400 69 64 56 400 77 47 47 47 51 400 200 75 400 400 69 63 200 75 69 55 72 165 400
split_gain=12018.3 9510.15 6391.93 4225.04 3283.87 2551.55 2529.8 1969.84 1890.53 1626.05 1550.49 1616.4 1375.98 1245.72 1231.18 1212.03 1194.09 1118.47 1051.63 1098.1 1007.64 924.121 883.524 871.911 865.634 857.513 825.09 789.452 690.244 682.006
threshold=90.500000000000014 0.0029112143674865369 287.12300000000005 0.0019011475378647449 312.06350000000003 0.16311594843864444 204.04350000000002 0.023001697845757011 0.00097443332197144638 0.016702015884220604 500.11000000000007 0.0070029769558459529 0.00099706789478659652 0.00099706789478659652 1.0000000180025095e-35 0.06100702844560147 201.07300000000004 0.0018587617087177934 0.032001601532101638 440.39450000000005 392.05400000000003 0.13305955380201342 0.0039564827457070359 0.003006174112670124 0.013925163075327875 0.15288453549146655 0.013997470960021021 0.0050044236704707154 0.0030039094854146246 368.12400000000008
decision_type=2 2 2 2 2 2 2 2 2 2 2 2 2 2 2 2 2 2 2 2 2 2 2 2 2 2 2 2 2 2
left_child=6 2 16 12 14 7 -1 10 18 20 23 -12 27 25 24 -9 -2 -18 19 -8 -6 -21 -11 -4 -5 -10 -19 -3 -7 -25
right_child=1 3 5 4 9 28 8 15 13 22 11 -13 -14 -15 -16 -17 17 26 -20 21 -22 -23 -24 29 -26 -27 -28 -29 -30 -31
leaf_value=-0.084336569212604628 -0.024184036187191674 -0.023902412539541274 0.049038627227735422 -0.021909130016410851 0.042501656919814571 -0.072683386622756488 -0.054492305633009858 0.02471355826866195 0.047662104921583626 -0.023485027779983673 0.10215722845770428 0.36804106274789028 -0.11283514583721632 -0.03287887500295629 -0.048442359214739203 0.087476647845337471 -0.048719768013969621 0.053163237898950992 -0.10661757778095592 0.14801886312322307 0.11179722958333023 -0.02846468803064342 0.033348461589199893 0.092729152018469596 0.025115641477879966 -0.048607268853995363 0.0040935483718186373 -0.072914777425917399 0.030448204207252885 0.14150953786237436
leaf_weight=3301 2118 2596 793 2374 1660 327 1916 1804 1228 1220 119 110 767 1696 2286 1341 487 2001 826 131 767 171 1556 2414 1665 285 1498 1202 322 1019
leaf_count=3301 2118 2596 793 2374 1660 327 1916 1804 1228 1220 119 110 767 1696 2286 1341 487 2001 826 131 767 171 1556 2414 1665 285 1498 1202 322 1019
internal_value=-6.82347e-11 0.0153528 0.0449429 -0.0110379 0.00508377 0.0736455 -0.0489253 0.0817717 -0.0302314 0.034507 0.103159 0.229874 -0.05175 -0.00345484 -0.01912 0.0514752 0.00615391 0.0222743 -0.0584594 -0.0405249 0.064401 0.0480894 0.00837121 0.096293 -0.00252407 0.0295281 0.0321554 -0.039414 -0.0215149 0.107208
internal_weight=40000 30446 14353 16093 11528 8249 9554 7600 6253 5203 4455 229 4565 3209 6325 3145 6104 3986 3044 2218 2427 302 2776 4226 4039 1513 3499 3798 649 3433
internal_count=40000 30446 14353 16093 11528 8249 9554 7600 6253 5203 4455 229 4565 3209 6325 3145 6104 3986 3044 2218 2427 302 2776 4226 4039 1513 3499 3798 649 3433
is_linear=0
shrinkage=0.05


Tree=26
num_leaves=31
num_cat=0
split_feature=200 400 51 400 41 64 59 81 73 76 112 77 400 400 103 69 59 77 72 400 341 400 206 75 152 400 73 76 401 400
split_gain=11207.3 7649.86 6761.21 4636.76 3382.19 2711.88 2537.56 2387.33 1799.49 1461.22 1384.41 1324.84 1217.24 1175.61 1155.46 1000.91 999.202 937.515 912.603 958.705 900.242 887.565 841.733 764.512 687.053 842.335 768.003 683.818 670.98 633.099
threshold=0.46918602287769323 287.12300000000005 0.0040002001915127048 198.09000000000003 0.17998622357845309 0.0019961160141974692 0.00087040179641917359 0.00050357470172457408 0.019006652757525448 0.04500576667487622 0.0022547943517565732 0.1620299965143204 172.1285 649.83200000000011 0.040042079985141761 0.0080004003830254095 0.0016920522321015599 0.088065702468156828 0.0021436326205730443 201.07300000000004 0.013993707019835712 446.22500000000008 1.0000000180025095e-35 0.099027622491121306 0.0029962564585730438 432.27050000000003 0.29203230142593389 0.0040055476129055032 292.50000000000006 156.15700000000004
decision_type=2 2 2 2 2 2 2 2 2 2 2 2 2 2 2 2 2 2 2 2 2 2 2 2 2 2 2 2 2 2
left_child=1 5 6 29 8 18 10 13 11 20 23 15 -7 22 28 -4 -14 -6 19 -1 -9 -13 24 -3 26 -26 -5 -17 -8 -2
right_child=3 2 4 7 17 12 14 9 -10 -11 -12 21 16 -15 -16 27 -18 -19 -20 -21 -22 -23 -24 -25 25 -27 -28 -29 -30 -31
leaf_value=-0.080298818000118719 -0.052218040236931523 0.029769778000627412 0.083357216116324712 0.080967679106929591 -0.049578234899866236 -0.067959123666546092 -0.053490181609443389 0.043983649537849778 0.010034562490550042 0.082262318144219762 -0.037889552404685722 0.098004210354418253 0.0093917834980252191 0.40866247079064771 -0.12376739340098142 0.0049517640684374233 -0.033494288092820061 0.016395559428314162 -0.08808636524391994 -0.024864915851029675 -0.0080546547611011193 0.24606827674766205 0.26984899396808554 -0.10777685443325989 0.11032335912414755 0.26429464233545014 -0.069188763562891803 0.055857133143144805 0.051269172706905709 0.0026617993902966555
leaf_weight=1411 874 2152 1600 1326 1233 1203 2706 2480 2056 1719 1564 1051 2676 31 602 1182 2758 956 3027 1744 1250 112 70 106 949 98 91 1493 162 1318
leaf_count=1411 874 2152 1600 1326 1233 1203 2706 2480 2056 1719 1564 1051 2676 31 602 1182 2758 956 3027 1744 1250 112 70 106 949 98 91 1493 162 1318
internal_value=-7.95411e-11 -0.0154901 0.0065267 0.0452197 0.0339106 -0.0446449 -0.0298362 0.0628454 0.0498816 0.0441219 -0.00173183 0.0649469 -0.0224499 0.102621 -0.0607916 0.0520747 -0.0123748 -0.0207656 -0.0684735 -0.0496564 0.0265445 0.112263 0.0988769 0.0233128 0.0940198 0.124735 0.0713246 0.0333636 -0.0475728 -0.01922
internal_weight=40000 29794 16975 10206 9683 12819 7292 8014 7494 5449 3822 5438 6637 2565 3470 4275 5434 2189 6182 3155 3730 1163 2534 2258 2464 1047 1417 2675 2868 2192
internal_count=40000 29794 16975 10206 9683 12819 7292 8014 7494 5449 3822 5438 6637 2565 3470 4275 5434 2189 6182 3155 3730 1163 2534 2258 2464 1047 1417 2675 2868 2192
is_linear=0
shrinkage=0.05


Tree=27
num_leaves=31
num_cat=0
split_feature=200 402 215 59 41 76 89 67 59 164 29 152 49 287 29 75 401 194 51 64 27 77 215 402 26 61 69 148 176 163
split_gain=10273.2 6246.04 5252.93 3078.42 2991.12 2580.19 2138.98 2117.72 1630.63 1519.73 1432.9 1203.78 1077.51 1038.29 1029.05 994.685 895.087 845.585 840.322 748.628 721.913 716.507 667.451 828.538 728.304 674.294 610.99 571.06 660.486 524.445
threshold=0.020026062615215782 241.50000000000003 0.0018939462024718525 0.0048134848475456246 0.16019667685031894 0.006012348225340248 0.003006174112670124 0.0010010520345531406 0.014020138420164587 0.0041862910147756347 0.0018433320801705124 0.019698153249919418 0.0074395565316081056 0.001084011164493859 0.0350219663232565 0.066027037799358382 174.50000000000003 1.0000000180025095e-35 0.1738846302032471 0.0087527772411704081 0.0010061229113489392 0.003006174112670124 0.062053503468632705 340.50000000000006 0.0030472328653559093 0.0013651934568770232 0.035004667937755592 0.0047875540331006059 0.0037301924312487249 1.0000000180025095e-35
decision_type=2 2 2 2 2 2 2 2 2 2 2 2 2 2 2 2 2 2 2 2 2 2 2 2 2 2 2 2 2 2
left_child=3 2 4 5 10 14 29 22 17 15 13 20 -7 26 21 -5 -12 -8 -6 -17 -9 -1 23 -3 25 -25 -2 28 -13 -4
right_child=1 7 6 9 18 12 8 11 -10 -11 16 27 -14 -15 -16 19 -18 -19 -20 -21 -22 -23 -24 24 -26 -27 -28 -29 -30 -31
leaf_value=-0.040037383815935565 0.084836484594398395 0.10907042541024661 -0.058213750102667522 -0.060184979002480543 -0.03434464156555856 0.044983623587357385 0.0019790306559763853 0.048923480015995474 -0.03418072499804941 -0.012074574946754121 0.010321065598161757 0.04722002560831981 -0.02612933301784779 0.022807358003465297 -0.065606040995499701 -0.12897479963607703 0.088389339876010553 0.050435133272066168 0.071565068321988765 -0.027445081718580705 -0.020786386502104109 0.004054077380238357 0.063832735045683348 0.20956410080432636 0.45546390781035789 -0.0062382303067438664 0.036058607045813998 0.051347093200455884 0.15094769405992703 -0.021632617161154551
leaf_weight=1929 2997 916 2804 3532 1803 1978 2375 714 2137 1254 3072 249 729 1311 1741 1062 417 1450 209 219 774 1764 474 262 26 42 817 1037 400 1506
leaf_count=1929 2997 916 2804 3532 1803 1978 2375 714 2137 1254 3072 249 729 1311 1741 1062 417 1450 209 219 774 1764 474 262 26 42 817 1037 400 1506
internal_value=-8.58283e-11 0.0188069 0.00689973 -0.0341405 0.0315466 -0.0140488 -0.0185965 0.0696521 0.000802907 -0.0611005 0.0443673 0.04544 0.0258328 0.0611932 -0.0339162 -0.0738739 0.0196517 0.020348 -0.0233431 -0.111617 0.0126631 -0.0189766 0.114332 0.133543 0.201472 0.179749 0.0743877 0.0743676 0.111151 -0.0454316
internal_weight=40000 25792 20898 14208 10626 8141 10272 4894 5962 6067 8614 3174 2707 5125 5434 4813 3489 3825 2012 1281 1488 3693 1720 1246 330 304 3814 1686 649 4310
internal_count=40000 25792 20898 14208 10626 8141 10272 4894 5962 6067 8614 3174 2707 5125 5434 4813 3489 3825 2012 1281 1488 3693 1720 1246 330 304 3814 1686 649 4310
is_linear=0
shrinkage=0.05


Tree=28
num_leaves=31
num_cat=0
split_feature=402 29 51 77 401 64 301 200 73 76 48 79 215 75 401 69 73 178 102 104 73 119 75 126 402 402 40 76 69 273
split_gain=9476.77 7483.14 3358.3 2469.09 1993.48 1988.81 1754.89 1596.62 1588.01 1255.41 1144.89 1132.68 1124.54 1039.42 964.338 877.586 788.719 717.486 663.557 661.349 640.857 636.657 624.662 620.481 620.114 605.31 590.287 586.692 552.221 552.866
threshold=90.500000000000014 0.0029112143674865369 0.0019011475378647449 0.32407650351524359 240.50000000000003 0.00097443332197144638 0.0039292883593589076 0.0040042081382125625 0.018009909428656105 0.011005137115716936 0.00099706789478659652 0.10905090346932413 0.0080004003830254095 0.018841312266886238 151.50000000000003 0.10302909836173059 0.031005426310002807 0.0069621726870536813 0.00050564872799441229 0.01300824247300625 0.2065161466598511 0.0020031090825796132 0.032001601532101638 0.012456523254513742 365.50000000000006 324.50000000000006 0.0060033032204955825 0.021778656169772152 0.034008502960205085 0.0069968535099178561
decision_type=2 2 2 2 2 2 2 2 2 2 2 2 2 2 2 2 2 2 2 2 2 2 2 2 2 2 2 2 2 2
left_child=5 3 13 6 8 17 7 20 9 26 15 25 24 19 27 -7 21 22 -14 -3 -2 -6 -1 -11 28 -5 -4 -8 29 -9
right_child=1 2 4 11 16 10 14 12 -10 23 -12 -13 18 -15 -16 -17 -18 -19 -20 -21 -22 -23 -24 -25 -26 -27 -28 -29 -30 -31
leaf_value=-0.062095898960869901 0.011184210605644576 -0.042120403823540958 0.0068776975086577933 0.10666324838644602 0.31404849460082396 0.017388720574791759 -0.034200677517560306 0.080485549742745036 -0.036101124416363442 0.020415007434879503 -0.051942366747353225 0.036171026414888029 -0.0080613969937497077 -0.097597870208301629 0.039904833016416077 -0.044705072317758748 0.022957644362401108 -0.010317134294728532 0.049854497319060907 0.026970337065258861 -0.096268282460653234 0.094281403513452711 -0.10821322536930539 0.071369415541743558 0.15854076195882852 0.21463170275092125 -0.029795415471801558 0.017251847759882651 0.035179755966241934 0.016631645135615897
leaf_weight=3576 1712 3373 2727 1171 35 2041 1554 3211 2596 2461 1689 609 931 806 1142 789 520 535 1055 386 151 564 924 789 179 146 1836 861 1252 379
leaf_count=3576 1712 3373 2727 1171 35 2041 1554 3211 2596 2461 1689 609 931 806 1142 789 520 535 1055 386 151 564 924 789 179 146 1836 861 1252 379
internal_value=-2.59399e-11 0.0136332 -0.00977672 0.0398811 0.00459653 -0.0434453 0.0317169 0.0436154 -0.00222073 0.00903659 -0.0193655 0.0925582 0.0545537 -0.0460735 0.00204591 7.70589e-05 0.0680111 -0.0650573 0.0227046 -0.0350257 0.00247496 0.107123 -0.0715653 0.0327852 0.0671512 0.118632 -0.00787835 -0.0158567 0.0637727 0.0737444
internal_weight=40000 30446 16093 14353 11528 9554 12427 8870 10409 7813 4519 1926 7007 4565 3557 2830 1119 5035 1986 3759 1863 599 4500 3250 5021 1317 4563 2415 4842 3590
internal_count=40000 30446 16093 14353 11528 9554 12427 8870 10409 7813 4519 1926 7007 4565 3557 2830 1119 5035 1986 3759 1863 599 4500 3250 5021 1317 4563 2415 4842 3590
is_linear=0
shrinkage=0.05


Tree=29
num_leaves=31
num_cat=0
split_feature=400 51 51 69 85 43 400 400 76 47 215 103 400 79 55 47 77 200 47 400 65 41 51 128 107 200 69 105 400 51
split_gain=9328.74 7939.1 4567.37 3623.18 3244.22 2660.44 2196.7 1899.19 1526 1358.55 1340.79 1149.14 1067.83 1031.19 1024.82 995.35 986.516 896.094 895.234 889.965 699.251 697.77 774.318 688.449 683.132 674.366 671.149 662.809 742.924 611.388
threshold=301.04000000000002 0.0045019711833447227 0.042010504752397544 0.069009538739919676 0.001994135789573193 0.018994620069861416 385.97650000000004 186.04700000000003 0.081017885357141509 0.0039761590305715808 0.0018939462024718525 0.075057398527860655 468.35100000000006 0.0140007003210485 0.033011084422469146 0.0087108276784420031 0.028994204476475719 0.68728435039520275 0.0050052599981427201 387.19000000000005 0.002453991444781423 0.21802252531051639 0.0029971561161801223 0.015000749845057728 0.00099608179880306146 0.72286427021026622 0.0047789793461561212 0.37981481850147253 453.98450000000008 0.16210600733757022
decision_type=2 2 2 2 2 2 2 2 2 2 2 2 2 2 2 2 2 2 2 2 2 2 2 2 2 2 2 2 2 2
left_child=2 4 5 6 10 18 9 -4 23 14 12 19 26 -9 -3 21 -14 27 -1 -6 -21 22 -7 -5 -19 -12 -2 -8 -29 -15
right_child=1 3 7 8 11 15 17 13 -10 -11 25 -13 16 29 -16 -17 -18 24 -20 20 -22 -23 -24 -25 -26 -27 -28 28 -30 -31
leaf_value=-0.00067372432322818944 0.073372458058587928 0.086886713114411207 -0.033246905710910622 -0.024673341769858553 -0.048225269875193544 -0.064774597366494338 0.086776183680728827 0.049949531496980268 0.077727189474603831 0.011322285312100651 -0.041855607701067318 -0.10694558292580575 0.10371595519137811 -0.01079202228396859 0.035526917392055754 -0.094233597329670821 0.35017854392528536 0.27792458766994399 -0.069077347108406267 -0.026005179667943246 0.024262412536029107 -0.073817465779117561 -0.021386430452905229 0.023595575673853734 0.14189293404240855 0.049011648410353166 0.0084380343178881555 0.10119076956595695 0.34933707543631209 0.032525697438861155
leaf_weight=3462 819 2833 2229 1734 2484 1740 1324 2014 702 1321 690 478 216 2225 1478 1673 50 121 555 1903 1087 2200 2514 1287 389 290 774 70 53 1285
leaf_count=3462 819 2833 2229 1734 2484 1740 1324 2014 702 1321 690 478 216 2225 1478 1673 50 121 555 1903 1087 2200 2514 1287 389 290 774 70 53 1285
internal_value=-5.83946e-11 0.0240223 -0.024271 0.051722 -0.0116208 -0.043412 0.0715418 0.0057106 0.0113211 0.0556846 0.0323592 -0.0325985 0.0573075 0.0214304 0.0692783 -0.0598652 0.150044 0.117177 -0.0101246 -0.0261064 -0.00773064 -0.0509563 -0.0391334 -0.00410992 0.174167 -0.0149663 0.0418224 0.0970905 0.208116 0.00506646
internal_weight=40000 20103 19897 11312 8791 12144 7589 7753 3723 5632 2839 5952 1859 5524 4311 8127 266 1957 4017 5474 2990 6454 4254 3021 510 980 1593 1447 123 3510
internal_count=40000 20103 19897 11312 8791 12144 7589 7753 3723 5632 2839 5952 1859 5524 4311 8127 266 1957 4017 5474 2990 6454 4254 3021 510 980 1593 1447 123 3510
is_linear=0
shrinkage=0.05


Tree=30
num_leaves=31
num_cat=0
split_feature=200 400 50 400 73 41 56 400 81 402 47 52 76 69 55 400 401 75 400 105 97 77 75 61 28 400 140 63 50 400
split_gain=8534.21 6148.72 5657.49 3208.62 3034.85 2599.12 2319.59 1942.48 1703.29 1189.69 1117.86 1038.72 1037.77 1014.67 848.589 820.676 768.035 975.047 749.857 958.202 738.046 737.426 1071.61 703.986 671.228 666.552 621.577 613.492 592.997 577.669
threshold=0.57008948922157299 216.16050000000004 0.0040002001915127048 209.98800000000003 0.014010045677423479 0.21540563553571704 0.0047675874084234246 323.96900000000005 0.00050357470172457408 337.50000000000006 0.00076746378908865165 0.0029971561161801223 0.032027242705225951 0.28815855085849768 0.037020368501544006 350.07950000000005 308.50000000000006 0.021005252376198772 477.84950000000009 0.3452445268630982 0.013001191895455124 0.0059943122323602447 0.099027622491121306 0.057044075801968581 0.01363249169662595 382.31600000000009 0.0016652800841256978 0.019008779898285869 0.050002500414848335 156.15700000000004
decision_type=2 2 2 2 2 2 2 2 2 2 2 2 2 2 2 2 2 2 2 2 2 2 2 2 2 2 2 2 2 2
left_child=1 11 4 29 6 7 15 10 9 -5 -4 -1 20 18 -13 -3 17 -6 -9 -20 -10 -8 25 27 -11 -23 -19 -7 -25 -2
right_child=3 2 5 8 16 23 21 13 12 24 -12 14 -14 -15 -16 -17 -18 26 19 -21 -22 22 -24 28 -26 -27 -28 -29 -30 -31
